/* Generated by Edge Impulse
*
* Permission is hereby granted, free of charge, to any person obtaining a copy
* of this software and associated documentation files (the "Software"), to deal
* in the Software without restriction, including without limitation the rights
* to use, copy, modify, merge, publish, distribute, sublicense, and/or sell
* copies of the Software, and to permit persons to whom the Software is
* furnished to do so, subject to the following conditions:
*
* The above copyright notice and this permission notice shall be included in
* all copies or substantial portions of the Software.
*
* THE SOFTWARE IS PROVIDED "AS IS", WITHOUT WARRANTY OF ANY KIND, EXPRESS OR
* IMPLIED, INCLUDING BUT NOT LIMITED TO THE WARRANTIES OF MERCHANTABILITY,
* FITNESS FOR A PARTICULAR PURPOSE AND NONINFRINGEMENT. IN NO EVENT SHALL THE
* AUTHORS OR COPYRIGHT HOLDERS BE LIABLE FOR ANY CLAIM, DAMAGES OR OTHER
* LIABILITY, WHETHER IN AN ACTION OF CONTRACT, TORT OR OTHERWISE, ARISING FROM,
* OUT OF OR IN CONNECTION WITH THE SOFTWARE OR THE USE OR OTHER DEALINGS IN THE
* SOFTWARE.
*/
// Generated on: 30.09.2021 14:09:14

#include <stdio.h>
#include <stdlib.h>
#include <vector>
#include "edge-impulse-sdk/tensorflow/lite/c/builtin_op_data.h"
#include "edge-impulse-sdk/tensorflow/lite/c/common.h"
#include "edge-impulse-sdk/tensorflow/lite/micro/micro_mutable_op_resolver.h"
#include "edge-impulse-sdk/porting/ei_classifier_porting.h"

#if EI_CLASSIFIER_PRINT_STATE
#if defined(__cplusplus) && EI_C_LINKAGE == 1
extern "C" {
    extern void ei_printf(const char *format, ...);
}
#else
extern void ei_printf(const char *format, ...);
#endif
#endif

#if defined __GNUC__
#define ALIGN(X) __attribute__((aligned(X)))
#elif defined _MSC_VER
#define ALIGN(X) __declspec(align(X))
#elif defined __TASKING__
#define ALIGN(X) __align(X)
#endif

using namespace tflite;
using namespace tflite::ops;
using namespace tflite::ops::micro;

namespace {

constexpr int kTensorArenaSize = 7968;

#if defined(EI_CLASSIFIER_ALLOCATION_STATIC)
uint8_t tensor_arena[kTensorArenaSize] ALIGN(16);
#elif defined(EI_CLASSIFIER_ALLOCATION_STATIC_HIMAX)
#pragma Bss(".tensor_arena")
uint8_t tensor_arena[kTensorArenaSize] ALIGN(16);
#pragma Bss()
#elif defined(EI_CLASSIFIER_ALLOCATION_STATIC_HIMAX_GNU)
uint8_t tensor_arena[kTensorArenaSize] ALIGN(16) __attribute__((section(".tensor_arena")));
#else
#define EI_CLASSIFIER_ALLOCATION_HEAP 1
uint8_t* tensor_arena = NULL;
#endif

static uint8_t* tensor_boundary;
static uint8_t* current_location;

template <int SZ, class T> struct TfArray {
  int sz; T elem[SZ];
};
enum used_operators_e {
  OP_RESHAPE, OP_CONV_2D, OP_MAX_POOL_2D, OP_FULLY_CONNECTED, OP_SOFTMAX,  OP_LAST
};
struct TensorInfo_t { // subset of TfLiteTensor used for initialization from constant memory
  TfLiteAllocationType allocation_type;
  TfLiteType type;
  void* data;
  TfLiteIntArray* dims;
  size_t bytes;
  TfLiteQuantization quantization;
};
struct NodeInfo_t { // subset of TfLiteNode used for initialization from constant memory
  struct TfLiteIntArray* inputs;
  struct TfLiteIntArray* outputs;
  void* builtin_data;
  used_operators_e used_op_index;
};

TfLiteContext ctx{};
TfLiteTensor tflTensors[42];
TfLiteEvalTensor tflEvalTensors[42];
TfLiteRegistration registrations[OP_LAST];
TfLiteNode tflNodes[20];

const TfArray<2, int> tensor_dimension0 = { 2, { 1,650 } };
const TfArray<1, float> quant0_scale = { 1, { 0.043002072721719742, } };
const TfArray<1, int> quant0_zero = { 1, { 0 } };
const TfLiteAffineQuantization quant0 = { (TfLiteFloatArray*)&quant0_scale, (TfLiteIntArray*)&quant0_zero, 0 };
const ALIGN(8) int32_t tensor_data1[2] = { -1, 1024, };
const TfArray<1, int> tensor_dimension1 = { 1, { 2 } };
const ALIGN(8) int32_t tensor_data2[32] = { -1394, -1543, -509, 334, -1761, -1764, 829, -2464, -968, -812, -194, -561, -432, -497, 753, -107, 69, -976, -1049, -30, -64, -1742, -66, -699, -1358, 211, -1245, -1578, -413, -2403, -1103, -775, };
const TfArray<1, int> tensor_dimension2 = { 1, { 32 } };
const TfArray<32, float> quant2_scale = { 32, { 0.0001107726784539409, 0.00013219569518696517, 0.00016743528249207884, 0.00022051937412470579, 0.00012565543875098228, 8.9901310275308788e-05, 0.00016282888827845454, 0.00010982881940435618, 0.00015720775991212577, 0.00014845280384179205, 0.00014625031326431781, 0.00016113845049403608, 0.00011658864968921989, 0.00018920659204013646, 0.00021221130737103522, 0.00015026587061583996, 0.00017136010865215212, 0.00012266897829249501, 0.00011590826761675999, 0.00017194582324009389, 0.00017238339933101088, 0.00010978303180309013, 0.00018788583111017942, 0.00015850560157559812, 0.00014190403453540057, 0.00019150212756358087, 0.00014037928485777229, 0.00011828761489596218, 0.00012293014151509851, 0.00013795767154078931, 0.00012405443703755736, 0.00012344199058134109, } };
const TfArray<32, int> quant2_zero = { 32, { 0,0,0,0,0,0,0,0,0,0,0,0,0,0,0,0,0,0,0,0,0,0,0,0,0,0,0,0,0,0,0,0 } };
const TfLiteAffineQuantization quant2 = { (TfLiteFloatArray*)&quant2_scale, (TfLiteIntArray*)&quant2_zero, 0 };
const ALIGN(8) int32_t tensor_data3[4] = { -154, -236, 169, 140, };
const TfArray<1, int> tensor_dimension3 = { 1, { 4 } };
const TfArray<1, float> quant3_scale = { 1, { 0.00093317241407930851, } };
const TfArray<1, int> quant3_zero = { 1, { 0 } };
const TfLiteAffineQuantization quant3 = { (TfLiteFloatArray*)&quant3_scale, (TfLiteIntArray*)&quant3_zero, 0 };
const ALIGN(8) int32_t tensor_data4[64] = { 809, -1280, -473, -462, -979, 1062, 867, -1241, -1315, -1871, -1131, 115, -259, -944, -2055, -848, -1126, 720, -2009, 225, 850, 130, -1020, 1207, -871, -1197, 308, -859, -1873, 377, -475, -588, -1166, 315, -800, -994, 746, -969, -587, 494, 570, 213, -532, -861, -612, -376, -1746, -1292, -1281, -1398, -1476, -560, 56, -1637, -776, -1138, -1260, 65, -1235, -1834, 358, -1636, -172, -1116, };
const TfArray<1, int> tensor_dimension4 = { 1, { 64 } };
const TfArray<64, float> quant4_scale = { 64, { 0.00013598438818007708, 6.038122228346765e-05, 8.9471985120326281e-05, 0.00016432818665634841, 7.1740061684977263e-05, 0.00012201336357975379, 8.6656444182153791e-05, 6.1433223891071975e-05, 5.6053726439131424e-05, 7.051754801068455e-05, 4.2420866520842537e-05, 0.00011184345203218982, 7.4877643783111125e-05, 0.00011901358811883256, 5.5895136028993875e-05, 5.3299641876947135e-05, 4.2564133764244616e-05, 9.0335313871037215e-05, 5.030571628594771e-05, 0.00013135382323525846, 8.9550318080000579e-05, 0.00010380274761701003, 4.9288337322650477e-05, 0.0001289770589210093, 7.0672736910637468e-05, 8.7039290519896895e-05, 0.00010046182433143258, 4.9897385906660929e-05, 7.2581111453473568e-05, 8.3452767285052687e-05, 9.1392510512378067e-05, 6.1347178416326642e-05, 9.3936294433660805e-05, 9.3509799626190215e-05, 6.5179643570445478e-05, 4.3078067392343655e-05, 8.7315056589432061e-05, 6.9845140387769789e-05, 0.00010665223089745268, 0.00010280044807586819, 0.00015010162314865738, 9.1465517471078783e-05, 8.4753693954553455e-05, 7.8271259553730488e-05, 7.8930941526778042e-05, 4.2702708014985546e-05, 7.5197371188551188e-05, 4.4189568143337965e-05, 5.0024067604681477e-05, 4.5125365431886166e-05, 9.644692181609571e-05, 7.4483905336819589e-05, 8.3273378550074995e-05, 4.772408283315599e-05, 5.9333960962248966e-05, 4.5420390961226076e-05, 7.8420445788651705e-05, 0.00010237430251436308, 0.000119674441521056, 4.8201858589891344e-05, 0.00012497405987232924, 6.3760562625247985e-05, 9.2389891506172717e-05, 5.0452876166673377e-05, } };
const TfArray<64, int> quant4_zero = { 64, { 0,0,0,0,0,0,0,0,0,0,0,0,0,0,0,0,0,0,0,0,0,0,0,0,0,0,0,0,0,0,0,0,0,0,0,0,0,0,0,0,0,0,0,0,0,0,0,0,0,0,0,0,0,0,0,0,0,0,0,0,0,0,0,0 } };
const TfLiteAffineQuantization quant4 = { (TfLiteFloatArray*)&quant4_scale, (TfLiteIntArray*)&quant4_zero, 0 };
const ALIGN(8) int32_t tensor_data5[128] = { -59, -616, -321, -389, -827, -1060, -641, 172, -691, -309, -752, -792, -932, -443, -477, -210, -621, -551, 496, -387, -59, -406, -1124, -845, -657, -764, -743, 57, -384, -230, -906, -228, -548, -718, -256, 360, -202, -229, -1262, -716, -1260, -947, -539, -1377, -759, -932, -545, -1016, 417, -213, -280, -139, -374, -128, -211, 555, -267, -963, -739, -790, -1055, -1080, -759, -1021, -1017, 218, -870, -606, -708, -518, -601, -1243, 89, -318, -422, -574, -752, -718, -976, -283, -185, -377, -323, -1288, -647, -519, -113, -355, -739, -797, -4, -641, -247, -281, -775, -548, -406, -494, 208, -508, -603, -516, -530, -514, -672, -810, -591, -334, -485, 5, -566, -642, -479, -729, 157, -232, 69, 26, -828, -686, 316, -576, -1100, -751, -876, -1141, -470, 225, };
const TfArray<1, int> tensor_dimension5 = { 1, { 128 } };
const TfArray<128, float> quant5_scale = { 128, { 0.00016648718155920506, 6.9941917899996042e-05, 0.00011912258923985064, 0.00031337220571003854, 6.9877256464678794e-05, 0.00012066469935234636, 0.0001253158989129588, 0.00024511304218322039, 0.00015677908959332854, 0.00010498924530111253, 0.0001108830765588209, 0.00011642633762676269, 0.0001829592656577006, 7.4247465818189085e-05, 9.5739989774301648e-05, 0.00018397743406239897, 7.6058648119214922e-05, 9.0369554527569562e-05, 0.00018975933198817074, 0.00014724838547408581, 0.00032839091727510095, 0.00014120357809588313, 7.331169763347134e-05, 9.6464944363106042e-05, 0.00017335674783680588, 0.00010017824388341978, 0.00013504705566447228, 0.00020903628319501877, 6.8735891545657068e-05, 0.0001465647219447419, 0.00011675529094645754, 0.00024047851911745965, 6.9746929511893541e-05, 6.8818902946077287e-05, 0.00022866840299684554, 0.00019349306239746511, 0.00018295060726813972, 0.00017108356405515224, 0.00016115985636133701, 7.1331240178551525e-05, 0.00019325417815707624, 7.7528180554509163e-05, 0.00022185272246133536, 0.00017140095587819815, 0.00010657386155799031, 0.00011234531848458573, 0.00027934613171964884, 0.00012002929724985734, 0.00021313450997695327, 0.00025216687936335802, 0.00022955155873205513, 0.0001881933567347005, 9.3872535217087716e-05, 0.00016721012070775032, 0.00021291531447786838, 0.00024074917018879205, 9.1992085799574852e-05, 0.00015064560284372419, 0.0001032397267408669, 0.00011228694347664714, 0.00012427860929165035, 0.00014552169886883348, 0.00015634394367225468, 0.00013793585821986198, 7.7070071711204946e-05, 0.00021054614626336843, 9.7994743555318564e-05, 0.0001507527194917202, 7.1244146965909749e-05, 0.00022084462398197502, 0.0002181584422942251, 0.00014503502461593598, 0.000206887794774957, 8.9600216597318649e-05, 0.00012269291619304568, 9.5827635959722102e-05, 8.1031721492763609e-05, 0.00012465096369851381, 0.00011964272562181577, 0.0001164174173027277, 0.00015667648403905332, 0.00014352152356877923, 0.00014694670971948653, 0.00013885748921893537, 0.00013439955364447087, 0.00012283996329642832, 0.00018799882673192769, 0.00014889769954606891, 0.00010769732762128115, 0.00013624357234220952, 0.00021690709399990737, 9.0135785285383463e-05, 0.00022479779727291316, 0.00017429633589927107, 0.00013021050835959613, 7.6260264904703945e-05, 0.00010003311035688967, 0.00019738278933800757, 0.00020688916265498847, 0.00021740442025475204, 7.3987393989227712e-05, 6.9955509388819337e-05, 8.1034566392190754e-05, 8.3294216892682016e-05, 0.00011595270916586742, 0.0002536187821533531, 9.3825576186645776e-05, 0.00026662604068405926, 7.8167468018364161e-05, 0.00018658161570783705, 0.00018690063734538853, 0.00014525839651469141, 6.9876645284239203e-05, 0.00018099248700309545, 0.00019252990023232996, 8.9356595708522946e-05, 0.00021236213797237724, 0.0001484072272432968, 7.059751806082204e-05, 7.2811169957276434e-05, 0.00024215594748966396, 0.00013923054211772978, 0.00012012090883217752, 0.00023239983420353383, 0.00013571188901551068, 0.00015828052710276097, 8.2585545897018164e-05, 0.00015121654723770916, } };
const TfArray<128, int> quant5_zero = { 128, { 0,0,0,0,0,0,0,0,0,0,0,0,0,0,0,0,0,0,0,0,0,0,0,0,0,0,0,0,0,0,0,0,0,0,0,0,0,0,0,0,0,0,0,0,0,0,0,0,0,0,0,0,0,0,0,0,0,0,0,0,0,0,0,0,0,0,0,0,0,0,0,0,0,0,0,0,0,0,0,0,0,0,0,0,0,0,0,0,0,0,0,0,0,0,0,0,0,0,0,0,0,0,0,0,0,0,0,0,0,0,0,0,0,0,0,0,0,0,0,0,0,0,0,0,0,0,0,0 } };
const TfLiteAffineQuantization quant5 = { (TfLiteFloatArray*)&quant5_scale, (TfLiteIntArray*)&quant5_zero, 0 };
const ALIGN(8) int32_t tensor_data6[256] = { 1011, -284, -2333, -323, -1415, -388, 287, -1702, -818, -1447, -547, 364, -2058, -564, -1509, -1049, -1629, -1074, -1698, -734, -2073, -1401, 80, -1050, -751, 839, -811, -929, -1670, -1048, -519, -628, -1727, -1090, 513, -1220, 356, -499, -764, -897, -905, -449, 795, -1123, -474, -962, -2298, 286, -88, 34, -451, 1140, -385, 1223, -1224, -253, -1248, -797, -631, -1455, 1018, -564, -1096, -1570, -1135, -1225, 874, 384, -875, -1040, -948, -1300, -1089, -781, -816, -832, -50, -1145, -735, -853, -1310, -1647, -183, -112, -767, -833, -137, -600, -1350, -550, 825, -838, 591, -1906, -938, -177, -977, -402, 936, -2406, 924, -332, -794, -692, -1122, -882, -1074, -59, -1118, -878, -1191, -271, 191, 2032, -1218, -1163, -265, -1992, 203, -872, -1429, -1068, -778, -1349, -96, -52, -700, -687, -1043, 664, -1340, -147, -547, -373, -2294, -960, -1391, -975, -214, -1203, -608, -1359, -531, 1534, -641, -516, -1557, -695, 531, -197, -2267, 1021, -1106, -573, -491, -999, 1243, -621, -897, -695, -99, -547, -798, -590, -302, -709, -552, -885, -374, 482, 983, -2053, 935, -27, -1150, -107, 623, -692, 454, -1137, -956, 251, -773, -563, -852, -1066, -1020, -748, -494, -1128, -1063, 524, -2036, -511, -1021, -1173, 841, -925, 1300, -898, -1785, -976, -451, -90, -521, -1616, 383, -2786, -1201, -411, -250, -1368, -2101, -1346, -680, -1204, -1578, -1110, -242, -670, -181, -928, 440, -220, -1176, -666, 104, -1154, -293, -485, -1019, -723, 525, 731, -1045, -1671, -935, -1668, -148, -1797, -991, -973, -2047, -1371, 289, -799, -113, -1528, -791, -52, -827, -632, -699, -160, -1006, -1578, };
const TfArray<1, int> tensor_dimension6 = { 1, { 256 } };
const TfArray<256, float> quant6_scale = { 256, { 0.00010833387932507321, 0.00016429169045295566, 4.1834249714156613e-05, 0.0001557300565764308, 8.5492465586867183e-05, 0.00011613710375968367, 8.2279839261900634e-05, 4.589810487232171e-05, 7.351993554038927e-05, 0.00012372816854622215, 7.2807641117833555e-05, 0.00014910100435372442, 8.3366670878604054e-05, 0.0001106832642108202, 4.7774898121133447e-05, 0.00010522230149945244, 5.6054574088193476e-05, 9.590847184881568e-05, 4.281583460397087e-05, 4.556305066216737e-05, 5.9958070778520778e-05, 0.00010056165774585679, 0.00013680868141818792, 0.00010665399167919531, 0.00010372068209107965, 0.00011007483408320695, 5.4637024732073769e-05, 8.1169011536985636e-05, 0.00016673712525516748, 8.5432635387405753e-05, 0.00011515986989252269, 0.00014019495574757457, 9.4245900982059538e-05, 0.00014078264939598739, 0.00017100347031373531, 5.8905916375806555e-05, 0.00013517118350137025, 4.4667096517514437e-05, 0.00013506157847587019, 7.7683769632130861e-05, 3.416856998228468e-05, 0.00014449449372477829, 0.00015395236550830305, 0.00010288734483765438, 0.00013877902529202402, 4.8450074245920405e-05, 9.212299482896924e-05, 0.00012645646347664297, 9.8130672995466739e-05, 0.00010545131954131648, 5.5001088185235858e-05, 9.7768999694380909e-05, 0.00014646828640252352, 0.00011555721721379086, 8.0277117376681417e-05, 9.0092515165451914e-05, 5.6454118748661131e-05, 0.00015652502770535648, 0.00014840390940662473, 4.9999842303805053e-05, 9.2580041382461786e-05, 7.210113835753873e-05, 4.096716656931676e-05, 0.00012707900896202773, 5.4645170166622847e-05, 8.7879023340065032e-05, 0.00014242966426536441, 0.0001089858342311345, 0.00013064872473478317, 6.9203102611936629e-05, 9.3843598733656108e-05, 0.00010142636892851442, 4.0356568206334487e-05, 0.00010275967360939831, 3.9025373553158715e-05, 5.1421771786408499e-05, 0.00013539762585423887, 0.0001793843402992934, 4.3371073843445629e-05, 5.8024896134156734e-05, 7.9311161243822426e-05, 6.5830397943500429e-05, 9.0456233010627329e-05, 0.00016530136053916067, 0.00013872890849597752, 5.0951635785168037e-05, 0.0001286361220991239, 0.00018759472004603595, 0.0001223478902829811, 5.009681626688689e-05, 0.00013801154273096472, 6.3049548771232367e-05, 0.00010557938367128372, 7.8503122495021671e-05, 4.4742260797647759e-05, 0.00015393686771858484, 7.6198426540941e-05, 0.00011956399248447269, 0.00011025786807294935, 5.3982646932126954e-05, 0.00013133410539012402, 0.00012342637637630105, 0.00019707917817868292, 6.145754741737619e-05, 0.00021108526561874896, 0.00010234935325570405, 0.00013880406913813204, 0.00012766956933774054, 9.504193440079689e-05, 0.00013446253433357924, 3.8702979509253055e-05, 9.3323302280623466e-05, 0.00011134505621157587, 0.00013568041322287172, 6.4423045841977e-05, 0.00010329467477276921, 0.00011464569251984358, 5.7211582316085696e-05, 0.00010341208690078929, 4.7891684516798705e-05, 0.00011171334335813299, 8.8484070147387683e-05, 7.0088310167193413e-05, 4.346215064288117e-05, 5.3193307394394651e-05, 9.0394292783457786e-05, 9.8761993285734206e-05, 0.00010291147918906063, 9.2552712885662913e-05, 9.0111287136096507e-05, 7.8159442637115717e-05, 0.00010522708907956257, 0.00011046648432966322, 7.3847048042807728e-05, 5.7474499044474214e-05, 7.9895798990037292e-05, 3.4218723158119246e-05, 0.00013391861284617335, 9.4153154350351542e-05, 5.0461563660064712e-05, 4.2137056880164891e-05, 3.2246636692434549e-05, 5.2316954679554328e-05, 0.00012574899301398546, 0.00010961566295009106, 9.8281714599579573e-05, 5.2656392654171214e-05, 0.00012295196938794106, 0.00017261113680433482, 8.0280231486540288e-05, 9.1681438789237291e-05, 0.00017079105600714684, 5.0226855819346383e-05, 5.5672062444500625e-05, 6.1637401813641191e-05, 7.5909709266852587e-05, 0.00011764209193643183, 0.00010895925515796989, 0.000107686581031885, 0.00010926140384981409, 0.00013179713278077543, 0.00014154137170407921, 9.5294555649161339e-05, 0.00013378469157032669, 0.00012488102947827429, 0.00014236070273909718, 9.9242461146786809e-05, 0.00010750943329185247, 0.00013376698188949376, 0.00011920886754523963, 0.00010206839215243235, 6.0628331993939355e-05, 0.00012080473970854655, 0.00011895052011823282, 3.211649163858965e-05, 0.00013826765643898398, 9.4746006652712822e-05, 0.00013680213305633515, 0.00012665681424550712, 0.00011828232527477667, 0.00015367573359981179, 0.00010801169992191717, 0.00014198337157722563, 0.00012047848576912656, 9.2652444436680526e-05, 0.00012946607603225857, 4.4658467231784016e-05, 8.6823842138983309e-05, 8.037622319534421e-05, 5.8905410696752369e-05, 9.1280540800653398e-05, 9.4795388577040285e-05, 4.2277995817130432e-05, 0.00011311697016935796, 3.5667020711116493e-05, 0.00013146664423402399, 0.00014974697842262685, 0.00013148717698641121, 0.00012291097664274275, 7.4584611866157502e-05, 0.00011496223305584863, 0.00011202507448615506, 8.6030391685198992e-05, 0.00013698689872398973, 9.7929412731900811e-05, 8.2782396930269897e-05, 0.0001075982945621945, 8.0261612311005592e-05, 0.00012042622256558388, 0.00011132279178127646, 7.381009345408529e-05, 3.9857572119217366e-05, 8.5844745626673102e-05, 4.3613294110400602e-05, 9.7029354947153479e-05, 4.6914377890061587e-05, 5.7528890465619043e-05, 4.7756970161572099e-05, 0.00012551559484563768, 5.1122235163347796e-05, 0.00015683512901887298, 0.0001341257884632796, 0.00010949812713079154, 0.00012686294212471694, 7.9401186667382717e-05, 4.4960383092984557e-05, 0.00010979953367495909, 0.00012210900604259223, 0.00010716285032685846, 0.00011431519669713452, 4.5194708945928141e-05, 0.00011909143358934671, 0.00010720617865445092, 0.00011843012907775119, 9.879020944936201e-05, 4.0619434003019705e-05, 0.00010303636372555047, 7.6824311690870672e-05, 0.00015424858429469168, 9.5883449830580503e-05, 0.00012297766807023436, 0.00013791090168524534, 8.595984400017187e-05, 0.00012238923227414489, 0.00013754323299508542, 0.00010547686542849988, 0.00014082864800002426, 5.5738120863679796e-05, 0.00013537150516640395, 0.00013095002213958651, 0.00013874992146156728, 6.6270658862777054e-05, 5.2319483074825257e-05, 0.00010279277921654284, 0.0001360386231681332, 4.2073213990079239e-05, } };
const TfArray<256, int> quant6_zero = { 256, { 0,0,0,0,0,0,0,0,0,0,0,0,0,0,0,0,0,0,0,0,0,0,0,0,0,0,0,0,0,0,0,0,0,0,0,0,0,0,0,0,0,0,0,0,0,0,0,0,0,0,0,0,0,0,0,0,0,0,0,0,0,0,0,0,0,0,0,0,0,0,0,0,0,0,0,0,0,0,0,0,0,0,0,0,0,0,0,0,0,0,0,0,0,0,0,0,0,0,0,0,0,0,0,0,0,0,0,0,0,0,0,0,0,0,0,0,0,0,0,0,0,0,0,0,0,0,0,0,0,0,0,0,0,0,0,0,0,0,0,0,0,0,0,0,0,0,0,0,0,0,0,0,0,0,0,0,0,0,0,0,0,0,0,0,0,0,0,0,0,0,0,0,0,0,0,0,0,0,0,0,0,0,0,0,0,0,0,0,0,0,0,0,0,0,0,0,0,0,0,0,0,0,0,0,0,0,0,0,0,0,0,0,0,0,0,0,0,0,0,0,0,0,0,0,0,0,0,0,0,0,0,0,0,0,0,0,0,0,0,0,0,0,0,0,0,0,0,0,0,0,0,0,0,0,0,0 } };
const TfLiteAffineQuantization quant6 = { (TfLiteFloatArray*)&quant6_scale, (TfLiteIntArray*)&quant6_zero, 0 };
const ALIGN(8) int32_t tensor_data7[64] = { -280, -104, -79, -152, -166, 211, -333, 436, -63, -54, -131, -79, -112, 338, -94, 265, -79, 587, -555, 359, -118, -193, 24, -114, 533, -63, -94, 189, -82, -260, -64, -213, 345, -185, -79, -122, -55, 133, -322, 209, -79, -243, -89, -22, -282, 344, -181, -300, -97, -59, 235, -61, -79, -253, -88, -168, -348, -124, 265, 304, -89, -129, -142, -400, };
const TfArray<1, int> tensor_dimension7 = { 1, { 64 } };
const TfArray<1, float> quant7_scale = { 1, { 0.00037912809057161212, } };
const TfArray<1, int> quant7_zero = { 1, { 0 } };
const TfLiteAffineQuantization quant7 = { (TfLiteFloatArray*)&quant7_scale, (TfLiteIntArray*)&quant7_zero, 0 };
const ALIGN(8) int8_t tensor_data8[64*1024] = { 
  0, -14, -8, 19, -17, -4, 17, -6, 6, -13, -21, -31, -10, -16, 4, -8, 12, -12, -7, 5, -5, -10, -2, 14, 0, 8, -7, -3, -5, 15, 1, -21, 0, -9, -36, -18, -4, -10, 5, 0, -16, -15, -17, -13, 6, -12, -6, -51, 0, -1, -13, -11, 7, -7, 7, -7, -3, -12, 22, -12, 2, 5, 1, -6, -12, -1, 3, -13, 17, 7, 10, -15, 18, 8, -12, -9, 5, -8, -9, 0, -19, 1, 7, 6, -18, 2, 2, 13, -8, 0, -30, -10, 20, 0, -1, 0, -15, -4, -2, -6, -20, 8, -33, 7, -6, -11, -10, 21, -19, 6, 3, -4, -20, 18, 7, 7, -3, -16, -6, 11, 7, 14, -10, 11, 7, 7, 14, -14, -6, -6, 1, -11, 7, 24, -3, 5, -11, 10, 11, 6, -11, 5, 1, 12, -15, -16, -4, 6, 4, 2, 2, -22, -11, 4, -2, -19, 11, 8, 18, 2, -11, -8, -12, 3, -6, -7, -8, 3, -6, 6, -30, 12, -36, -5, 1, -14, 3, -15, 3, -15, 3, -4, -29, -6, -2, -6, -3, 2, -18, -15, -21, -20, 2, -14, 2, -15, -1, -5, -19, 5, -3, 2, 2, -18, -21, 1, 8, 5, -7, -3, -6, -6, -7, 5, 5, 12, 0, -6, -9, -10, 5, -10, -17, -9, -10, -6, -8, -2, -7, -8, -6, -24, 3, -26, -11, -10, 15, 2, 19, -19, -2, 9, -4, 5, -5, -16, -11, 11, -14, 1, -22, 6, -3, -19, -14, -18, -21, -20, -13, -18, -8, -10, -17, 8, -16, -5, -15, 0, 12, -18, -16, -9, 12, -1, -8, -2, 14, -3, -26, 3, -6, -11, -7, 8, 3, 5, -15, -16, 2, -16, -21, 5, -27, -7, 1, 1, -8, -22, -12, 14, -18, 2, 5, -14, 1, -2, -17, -3, -15, -32, 0, 3, -7, -3, -24, -10, -14, -7, -12, -37, 3, -9, -19, -21, 4, 7, -16, 8, -3, 9, 0, 18, 5, 2, -4, -1, -8, -4, -2, -19, -23, -14, 1, 6, -4, -13, -1, -13, -27, 5, -8, -38, -13, 0, -3, 9, 6, -3, -36, -14, -1, -3, -15, 6, -7, 10, 1, -5, -5, -4, -1, -8, -36, 10, -40, 18, -1, -5, -7, -18, 3, 4, 5, -5, -4, 9, 5, -32, 16, 7, -13, -17, -10, 4, -6, -17, 8, -12, -4, -47, -31, 0, 0, -9, -5, 0, -13, -7, -16, -19, -17, -7, -15, -2, -1, -16, 8, -18, -5, -2, -8, 6, -7, -6, 7, -14, -17, -8, 16, -1, -6, -1, -25, -25, -19, 4, -11, -21, -15, 8, -24, 3, 2, -10, 7, -14, -13, -6, -14, -12, -15, -20, -10, -6, -16, -9, 9, -9, -1, -19, -8, 2, -8, -1, -16, 6, 5, 8, -7, -1, 8, -12, 13, 3, -2, -17, -17, 2, -29, -15, 3, -8, -10, -6, -5, -18, 4, -10, 4, -3, -7, 2, -32, 9, -8, -5, 13, -2, -4, -19, 20, 0, -15, 11, -20, 1, 8, 8, -11, -14, -19, -4, -1, -14, 8, 12, -5, -28, -8, -7, 1, -17, -20, -9, -18, 5, 14, -14, -13, 0, -1, 4, -16, -21, 6, -19, 1, -8, -4, -10, 2, -16, -5, -8, 10, 2, -1, 0, -17, 13, -6, -9, 17, -22, -12, 10, 14, -15, -8, -24, 12, 3, -12, 3, -1, 2, -12, 12, 8, 5, -10, -4, -29, -16, 7, 18, -6, 6, -20, 10, -5, -12, -6, -40, -4, -28, -1, -17, -7, 2, 12, -18, -24, -4, 6, -3, -12, -18, -1, 2, -17, -6, -22, -1, 13, 6, 8, 8, 14, 0, -34, 9, -5, -16, -13, -18, 1, -17, 3, -7, 1, -8, -8, -6, -32, -16, -1, 3, 24, -10, -1, 1, -7, -8, -6, 1, 1, 6, -4, -6, -18, 1, -16, 16, 2, 17, 12, -9, -9, 4, -3, -1, -7, -16, -16, -14, -6, -1, -14, -7, 7, 6, 5, -21, -1, -9, 8, -4, -13, 8, 0, -12, -10, -11, -12, 5, -20, -9, -30, -1, 16, -6, -12, -17, -8, -11, -2, -3, 8, 15, 1, -17, -42, -8, -9, -12, -10, -22, 1, -5, 0, 2, -45, -27, -10, -10, -16, -36, -25, -17, -10, -2, -15, -14, 4, 6, -13, -13, -17, -13, -1, 18, -11, -8, 2, -5, -8, -13, 6, -15, -7, -1, 6, -10, -20, -10, -19, -18, 9, -7, -15, -11, -4, -1, -24, -26, -6, -5, 4, -8, 19, -8, -12, -12, -19, -1, -18, -12, -2, -11, 22, -18, -15, -11, -16, -26, 3, -14, -23, -33, -7, -31, 15, 6, -14, -13, -4, 16, -20, 2, 7, -6, -5, -4, -6, -16, -3, -10, -8, -17, -4, -18, -3, -3, -15, -4, -2, -9, -31, 21, -3, 14, -21, -7, -10, -3, -3, 15, -18, -15, -18, 2, -27, 15, 5, 12, 0, -3, 4, -15, -13, -14, -14, -25, -19, 0, -33, 6, 8, 7, -12, -2, 10, -13, -43, -4, 1, -2, 14, -11, -13, -3, -10, -11, 15, -16, 14, -8, 15, -13, -3, -19, 9, 4, 3, -6, 4, -6, 4, -9, -25, -16, 6, -22, -4, -18, -18, -8, -16, -15, -24, -4, 8, 5, 6, -9, 6, -13, -1, 3, 1, -13, 6, -19, 3, 13, 14, 1, -6, -7, 5, 0, 1, -13, 18, 7, 21, -16, -4, -31, 7, 10, -14, -7, -13, 1, -1, -15, -18, -18, 7, 1, 22, -18, -17, -1, -19, 9, -18, -18, -4, 3, -1, 11, -35, 7, 1, 27, -18, 18, 1, -1, -38, 8, -12, 2, -10, -18, -21, -10, -25, 28, -8, -5, 26, -13, -13, 15, 3, -28, 11, -29, -11, 18, 3, -8, -18, 6, 5, 7, 7, 22, -10, 18, -32, -4, 16, -4, 2, -5, -4, 11, -26, 0, -16, 4, -10, -18, -2, -4, -14, 16, -6, -9, 3, -13, 8, 5, 7, -7, 31, 24, -1, -1, -3, 7, -10, 0, 16, -16, -1, -20, 17, -8, -8, 17, -1, -8, 14, -5, -9, -18, -34, 23, 6, -11, -14, 2, 7, 4, 5, -29, -12, -13, 
  17, 47, 15, 88, -8, 21, -31, 0, -32, 4, 22, -5, 25, 29, -11, 4, -6, 6, -6, -11, -7, -5, 3, -5, 7, 12, 1, -24, 52, -5, -5, -5, 1, -6, 60, -11, 24, -13, -17, -15, -16, 49, 24, 1, 25, 5, -7, 29, -7, -19, -10, -12, -24, 44, -7, 10, -12, 48, -55, -12, 4, -13, -19, 4, -2, -13, 35, -35, -7, 19, 18, -15, 1, -13, -15, 5, -20, -19, 10, 3, 7, 11, -16, 57, 22, -16, -13, -21, -19, 7, 26, 35, 31, -13, -10, 13, -27, -8, 14, 0, 30, 31, 63, -11, 15, -16, -9, 1, 1, -1, -5, -20, -4, 5, -2, -31, -51, 1, -8, 6, -12, 31, -4, 22, -15, -10, -24, -33, -18, 27, 20, -16, -7, -1, 17, -21, -12, -11, 5, 2, -12, -2, -18, 30, -39, -18, 7, -6, -3, -15, 14, -14, -18, 9, -15, 25, 13, -45, -9, 0, 24, -14, -10, 51, 7, 22, 19, -12, 55, -10, 18, 54, -36, -1, 16, -3, 8, 53, 16, -1, -11, 13, -8, 15, -27, -5, -16, -20, -5, 19, 41, 30, -2, -1, 12, -7, -6, 8, -9, -4, -12, -63, -3, 18, -12, 13, 15, 13, -6, 11, -18, -23, 0, -12, -6, -14, 4, -5, 28, -3, -69, 0, 21, 19, 9, 4, 2, 20, -56, -12, 9, -7, -19, 2, -17, -3, 12, 18, -16, 32, -29, -9, 12, 21, -7, 41, -62, -10, 42, -21, 35, -12, -18, 20, 13, -8, 3, 34, 15, 47, -39, 20, 11, 18, -8, -14, -20, 12, -3, 54, -15, -7, 4, -24, -7, 2, -15, 10, 20, 18, -14, -5, -3, -2, 14, 0, 32, -40, 16, -23, 1, 7, -84, 6, -58, 10, 0, 28, 23, -5, 45, -20, 0, -2, -3, -22, -3, 20, -30, -47, -4, 50, 28, -44, 39, -19, -28, 2, 0, 8, 18, 9, -16, -33, -1, 6, 7, 7, 3, 13, 14, -17, 39, -36, -3, -6, -3, -4, 7, 11, 33, 4, 10, -44, -20, -3, -5, 12, 29, -7, 1, 28, 14, -30, 30, -9, -14, 7, 15, 5, 66, -8, -42, 35, -4, -4, 1, -21, 16, -35, -1, 10, 24, 6, 18, 11, -47, 2, 1, 1, 7, 14, 7, -30, 17, 62, 48, 32, 13, 8, -13, -13, -5, 19, 17, -9, 2, 5, -14, 2, 6, -24, -17, -55, -37, -13, 11, -24, 17, 10, 5, 9, -1, 19, 12, 0, 19, -7, 13, 21, 24, 15, 24, -12, 2, -9, -17, 14, 1, -15, 0, -14, -18, 15, -1, -35, -41, -28, -10, 52, -6, -3, -6, 7, -14, -8, 42, 15, 2, 7, -3, -27, -23, -34, -19, 6, -24, -66, -1, 22, -7, -5, 24, 10, 17, -4, 5, -8, -3, 6, 5, -2, 11, -2, -12, -18, 32, -6, -6, 5, -19, -9, 26, -16, 5, -7, -18, -3, -5, -19, 19, 10, 27, 51, 6, 10, -52, 18, 20, -6, -25, -13, -7, 22, -12, 5, 30, -6, 8, -5, -47, 7, 8, -2, 3, 0, -5, 27, 10, 15, 18, -2, -36, 55, 16, 4, -6, -2, 5, 2, -11, 7, -1, 15, -7, -4, -14, -14, -14, 0, 23, -12, 1, -14, 12, -29, -20, 4, 13, 3, -51, -12, -19, -31, -8, -5, -1, -3, -10, -40, -40, 7, -9, 6, -31, 13, -4, 39, -17, -43, -47, -7, 24, 9, -11, 21, 11, -36, -29, 25, 13, 15, -9, -40, -11, -23, -13, -9, 9, 15, 18, 0, -9, -13, -10, -10, -65, -24, -2, -43, -62, -4, -13, 9, -20, 18, -5, -12, -26, 60, -6, -6, -3, -20, 8, 8, 13, 1, -15, 17, 17, 23, 7, 2, -3, -46, 5, -11, -7, 16, 18, 3, 8, 1, 22, 17, 12, 14, -12, -40, 52, -36, 38, 43, 10, 2, -11, -2, -3, -20, 7, -12, 7, 11, 5, -32, 15, -15, 6, -2, -25, -17, -11, 17, 2, -15, 5, -4, -15, 39, -25, -1, -14, -8, 20, -48, 2, 9, -33, -4, 57, -4, -2, 21, -2, 24, 4, 34, 2, -31, -61, -17, -78, 21, 18, 18, -10, -33, -7, -19, -20, 16, 24, -46, -10, -6, 3, 12, -1, -19, -1, -25, -6, -19, -9, 16, 1, 5, 4, 41, -8, -23, -19, -3, 15, 14, -15, 5, -13, -14, -31, -18, 24, 3, -6, 2, -15, 6, 30, 22, 38, 9, -8, -20, -15, 15, -1, -16, 2, 26, 48, 3, -6, 48, -19, 19, -11, -5, -23, 5, 15, 9, -4, -15, -7, 1, -2, -10, 37, 24, -1, -6, -3, 3, -43, 16, 16, 61, -20, -11, 13, -36, 5, 7, 12, -15, -16, 15, -26, -22, 26, 0, -7, 3, -15, 3, -15, -3, -22, 5, -5, 11, -26, 2, -2, -5, 23, -15, -11, -18, 15, 28, -21, -7, 6, 2, -40, -11, 0, -2, -18, 5, -9, -52, -6, 22, -13, 0, 3, -16, -3, -1, 26, 5, -15, -66, -20, -11, 4, 9, -4, -25, 3, -2, -35, -17, -9, -9, -10, 2, 0, -7, 10, -15, -55, -11, 35, -8, 6, 41, -17, -24, -15, 22, -9, -9, -5, 7, 12, 24, -23, -13, 94, -10, 9, -22, -20, -22, 6, -14, -30, 6, -14, -8, -18, 5, -29, 6, 19, -11, -20, -1, -3, -23, 4, 8, -7, -54, 0, -38, 14, -25, 8, -13, 8, 1, 7, -23, -4, 3, -12, 25, -22, -39, -7, -25, -14, -9, -9, 12, 5, -7, 37, 3, -39, 0, 11, -14, -28, 5, 13, -4, -25, -17, -17, -30, 14, 31, 49, 0, -8, 74, 11, -21, 46, -15, -16, -49, -8, -10, -29, 34, -4, 10, 10, -11, -23, 9, -46, 1, 15, 4, 4, 5, -33, 2, -14, -12, -3, -42, -12, -13, -37, -16, -27, 49, -23, -15, -24, -1, -12, 5, -4, 1, -4, 0, -6, -11, -16, 20, -4, -3, 43, -9, -36, 2, -2, 15, 0, -8, -34, 40, -17, -16, 10, 76, -34, 3, 27, -2, -11, 27, 23, -4, 9, 0, 3, -7, -16, -10, -15, -27, -21, -7, 
  13, -4, 0, -10, 8, -6, -13, 19, 6, -7, 4, -7, 2, 5, -11, 0, 2, 3, 3, -9, -5, -9, -1, 3, -14, -11, 8, -11, -11, -8, -12, 7, 13, 4, 11, -8, -12, -19, -5, 1, 12, -17, -9, 6, -8, -3, 4, -5, 3, -10, -10, -6, -5, 0, -15, -15, 5, -15, 0, -9, 2, -7, 7, 10, -17, -17, -14, 0, 2, 1, -14, 0, -11, -14, -8, -3, 16, -6, -6, -4, 5, -6, -1, 7, 11, -5, 6, -8, -14, 3, -13, 7, -6, -7, -3, -12, 8, 7, 1, -4, 10, -19, -4, -8, -12, -4, -5, 10, -17, -13, -17, -7, -16, 5, -13, 11, 3, 4, 7, 1, -5, 8, -6, 0, -10, -13, -3, -13, 3, 8, 5, -3, -14, -9, 12, 13, -6, -8, -1, 1, 13, -19, 0, -12, -7, -17, 0, 18, 7, 0, 5, 1, -19, 1, 8, 4, -1, 18, 0, -3, -18, 2, 10, -4, 4, 6, 2, 8, 14, 13, -12, 0, -10, -18, 5, -14, 3, -5, -6, -17, 7, -6, -1, -2, 4, -14, 1, -15, -15, 2, -12, 2, -12, -19, -1, -6, -13, 7, 6, -4, 8, 8, -16, -3, -16, -17, 0, -4, -1, -14, 0, -5, -6, -7, -5, -2, -4, 0, 10, -7, -3, -2, -8, -3, 3, -17, 6, -5, -14, 17, -14, -3, -5, -8, -8, -8, -17, -10, 5, 2, -8, 13, 3, -2, -11, -11, -1, -8, -17, 7, -10, 1, -15, 8, -18, -18, -1, -12, 5, 8, 7, -18, -6, 1, 1, -11, 9, -3, -9, 3, -17, -8, -10, -13, -14, -4, 14, -4, 7, -4, -11, 7, -11, -17, 1, 2, -9, 17, -2, -4, 8, 5, -5, 6, -9, -6, -16, -10, -10, 4, -17, -14, -8, -9, -18, 0, 1, 7, -7, -3, 5, 8, -1, 16, -2, -2, 6, -5, -8, -5, 3, -6, 3, -18, -5, 2, -1, -8, -18, -12, -9, 1, -2, 7, -10, 6, 6, 4, -2, 6, 9, -7, -6, -5, 8, -7, -5, -12, 1, 8, -13, -7, -1, -11, -16, -9, -6, 17, 11, 6, -8, -4, -5, -12, 8, -2, -14, -11, -16, 3, -8, -13, -6, -6, 3, 19, 4, -17, -4, 10, 7, -10, 9, -6, -3, -19, 0, 4, -9, 2, 3, 8, -7, -3, 7, 18, 13, -11, -12, -1, -9, 3, 1, -5, -13, 3, 4, -15, -16, -6, -14, -6, -13, 9, -12, -4, -9, -17, -2, -14, 3, -8, 2, -13, 9, 0, -12, -8, -3, -1, 10, -19, -6, -9, 4, 4, -10, -14, -12, 4, -6, 6, -11, -15, -11, -14, 6, -3, -8, 3, 14, -16, 7, -14, 6, -9, -8, 9, 8, -18, 4, -9, 5, 8, -12, 4, -17, -13, 17, -14, 5, -11, -12, -1, 11, -19, -12, -14, -2, -3, 4, 2, -9, -8, -9, -13, 10, 1, -10, -2, -11, 4, 6, 13, 3, -4, 1, -11, 5, -9, 7, 4, -6, 5, -3, 5, -10, 11, -19, -14, 2, -3, 2, 8, -8, 5, -11, -10, 4, -14, -11, -2, 13, -13, -11, -6, 3, -1, -12, -15, 2, 15, -13, -8, -17, -3, -4, 9, 2, 5, 8, -17, -15, -12, 6, -19, 1, 1, -19, -10, 8, 8, 5, -6, 5, 2, 7, 3, -14, -11, 13, -7, -19, -3, -9, -9, -15, -16, -5, -14, -5, -18, -9, 5, -10, 11, -6, -13, 6, -12, 12, -9, -5, -5, -10, 8, 6, -2, -10, 6, -11, -18, -4, -11, 5, -9, -2, -13, 0, -5, -4, 7, -2, 6, 2, -3, -2, 2, -13, 9, -10, 11, -17, -16, 0, 7, -13, 3, 6, 0, -7, -16, -8, -15, 5, -12, -7, 4, -2, 3, -12, -8, 5, 8, -17, -2, -3, -1, -19, -8, -9, 2, 1, -6, -1, -10, 12, 6, -1, -5, -1, 2, 4, -10, -16, 6, -3, -7, -14, -4, 1, -9, -17, -19, 7, -5, -12, -3, -7, 4, -12, -6, -8, 7, -16, -12, 2, 0, -19, -19, -10, 4, -8, -19, -4, 2, 1, -15, 4, 11, -8, -12, -17, -11, 10, -6, -13, 4, -1, -18, -11, 3, 0, -17, -10, -18, 2, 3, -1, 1, 12, -18, -5, -10, -18, -12, -13, -2, -15, -12, 0, -6, -13, 0, -5, -7, -9, -6, 9, -3, 10, -8, -2, -1, -12, -10, -7, -12, 12, 9, -11, -18, -10, -9, -17, -5, 2, -6, 3, -6, 19, -6, 14, 3, 7, -8, -16, -13, -4, -7, 0, 1, -17, 5, 6, -8, -18, -13, 14, -13, -5, -6, -10, 2, 0, -2, 12, 2, -8, 8, -15, 0, -8, 6, 12, -13, -8, 13, -7, 6, 5, 0, -5, -8, -7, -7, 10, -12, 3, 2, -8, 0, -10, 2, 5, 0, -3, -2, -1, 1, -4, 1, -18, -15, -6, 9, 6, 3, 6, -11, -13, -3, -2, -3, -1, -8, -11, 8, -18, -5, -15, 11, -1, -2, -7, -3, -18, 0, 5, 11, 3, 8, 2, -6, -15, -3, -1, -10, -7, -1, -2, -11, -9, -16, 0, 2, 7, -9, 2, -14, 4, -12, 8, 5, -7, -17, -12, -11, 7, 7, -9, 7, -15, -8, -5, -5, -2, -1, -18, -17, -7, 1, 5, -7, 4, -14, -9, -6, -19, -14, -19, -14, -2, -12, 7, -15, -17, 1, -8, 8, -8, 4, 6, 9, -11, -1, 12, -1, 11, -5, 1, -8, 1, -10, 5, -9, -8, -8, -15, -3, 3, -14, -2, -19, -6, -12, -12, -4, -8, 4, -14, 7, -13, 1, -7, -19, 12, -10, 0, -15, -7, -1, -13, -9, -3, -7, -5, 2, -14, -11, -13, -6, -19, -10, -18, 5, -11, -6, -11, 5, -12, -7, 4, 6, -4, -16, 0, -7, -12, -4, -3, -7, -6, 8, -7, 13, 0, -19, 9, -2, -1, -6, 0, 6, -3, -16, 7, -14, -17, -10, -19, 2, 0, -13, 0, 8, 1, -8, 7, -13, 8, -9, -4, -9, -13, 3, 5, 5, 4, -9, 8, -8, 3, 10, -16, 6, 2, -19, -2, -13, 0, 2, -2, -8, 
  -29, 22, -7, -15, -5, -3, -18, -11, -10, -15, 0, 15, -14, -13, -5, 0, -6, -14, 0, -9, -15, -30, -16, -5, 3, -37, 2, -12, 4, -2, -19, -27, 13, -16, -14, -19, 16, 1, 18, -14, 13, -35, 6, -6, -12, 2, 11, -18, -50, 4, -9, -25, 17, -4, -13, 4, 3, 3, -25, 4, -3, -11, -6, -8, -5, 1, -25, -5, -13, -12, -13, -4, -2, -17, -10, 19, -41, -23, -8, -1, -18, 4, -10, 27, -19, -1, 8, 8, -25, 0, -19, 6, -22, -13, -2, -22, -9, 8, 4, 3, -10, 0, -19, 7, 2, -18, -2, -11, 0, -11, 14, 8, -23, -3, -9, -14, 4, 12, 21, 0, -19, -15, -6, 6, 4, -14, -1, 6, -17, 19, -5, -4, -14, -1, 1, 8, 5, 1, 20, -7, 4, 6, -8, -24, -9, 3, -19, -10, -6, -13, -1, 14, -9, 7, 1, 10, 12, -1, -12, 19, 7, -2, -23, -10, -17, 0, 0, -2, -41, -19, 17, -16, 18, 5, -3, -3, 3, -25, 7, -28, -18, 20, -9, -49, -2, -35, -7, -17, -3, 7, -34, -3, 4, -2, 3, -14, 15, 5, 35, 8, -12, 3, -13, -13, -16, -3, 6, -3, -13, 1, 0, 4, -11, -2, -8, 2, 10, 10, -11, 7, 4, -18, -1, -27, -3, -19, 6, -28, -7, 4, -18, -4, -14, -3, 0, -8, -2, 4, 4, 3, -16, -13, 6, -4, -22, -2, -5, -12, 0, 6, 8, 6, 6, -1, 5, 1, 23, 5, 0, 45, -13, -3, -32, -2, -7, -2, 7, 20, 2, -2, 5, -29, 11, 25, -7, -5, 5, -23, 33, -33, -14, -27, 0, -17, -33, -18, -18, 4, -11, 2, 55, -6, -42, -1, -47, -9, -16, 22, 24, -13, -7, 7, -16, 5, 47, 26, 6, -13, -4, 37, -14, -39, -6, -12, 17, -8, -24, 2, -10, -20, -5, -15, 10, -58, 13, 10, 9, 28, -15, -20, -7, 2, -25, -21, 3, 3, 20, -12, -12, 8, -1, -8, -16, 6, -7, -3, -19, -3, 55, -4, -7, 20, 8, -7, -17, -8, -14, 6, 20, -7, -14, 33, -23, -47, -7, -24, -14, -2, -30, 23, 1, -4, -10, -1, -54, -2, -30, 1, -15, 12, -18, -23, 9, 22, -8, 25, 3, 18, 1, -20, 8, 6, -15, 15, 35, -7, 14, 5, -4, 66, -33, -28, -14, -36, -4, 18, 4, -29, -9, 7, -10, -7, 14, -51, -10, -8, -4, -24, -43, -19, -11, 43, -6, 3, -1, 12, -22, 11, -39, -12, 8, 3, 23, 20, -17, -31, -36, -6, 3, -18, -11, -75, -6, -28, -12, -2, -17, 15, 12, -5, 7, -30, -3, 3, -6, -19, -45, -39, -19, 12, -8, 4, -9, 10, -10, -34, 17, -4, 7, 3, -8, 7, 4, -14, 25, 0, -36, -16, -18, -36, -2, -11, 6, 7, 5, -1, -2, -1, -28, 1, -18, -6, 25, 0, 5, 9, -17, -34, -3, 3, -39, -42, 26, -9, -11, 6, 28, 12, 7, 13, -4, 6, 46, 9, -6, 8, -11, 21, 29, -4, -3, 8, -10, 49, 8, -5, -7, -11, -6, -6, -12, -6, -4, -43, 7, 47, -9, 48, -8, -4, 4, -6, -12, -40, 2, -28, 9, -8, 24, -9, -6, -13, 1, -9, 9, -4, 39, -7, -16, 47, -5, -7, -5, -18, -41, -11, -9, -1, 3, -4, 35, -18, -45, -16, 8, 10, -14, 13, -8, 45, -27, -1, 19, -13, -4, -19, 0, -19, 18, 2, -11, 1, 9, 0, -11, 7, -18, -7, -11, -26, -14, -15, 17, -2, 21, -11, -15, 33, -6, -23, -36, -11, -31, -28, -29, -11, 46, -35, -4, 41, -26, -28, -5, 3, -8, -50, -17, 1, 44, -12, -6, -3, 8, -19, -24, 1, 4, -1, -13, -19, 2, -3, 0, -12, -33, -11, 6, 17, -5, 31, -16, -5, 2, -2, -7, -33, 38, -31, 8, -5, -5, 1, 21, -16, -14, -4, -11, -15, -8, -15, 6, -13, -16, -7, 34, 32, 4, -29, 3, -19, 75, 30, -46, -2, 9, 6, -1, -11, -44, 49, -9, 24, -18, -41, 57, -17, 6, 0, -6, -25, -3, 6, 13, -2, 13, -5, 5, -25, -49, -12, -64, 18, -44, -3, -2, -7, -11, 4, 43, 7, -19, -18, 7, -12, 0, 3, -11, 10, -13, -5, 51, -7, 20, 9, -68, -27, 10, -19, 34, 20, -10, -9, -18, -2, -10, -69, -24, -13, 1, 5, 53, -6, -42, -28, 2, 2, -44, 13, -22, 11, 34, 3, 9, 12, -1, -3, -12, 6, -14, 6, -14, -26, 5, 27, -46, 3, -7, -31, 1, 20, 7, -17, -14, 21, -4, -30, -6, -5, 10, -41, 11, 37, -11, -12, 7, 4, -26, -11, -35, 38, -13, 5, -6, -2, -10, -9, 40, -12, -18, 1, -2, 4, -48, -19, -10, -18, 11, 42, 0, -47, -28, -1, -3, -2, 6, 39, 17, 8, -32, -4, -2, 32, -13, 11, -5, 0, -17, -6, -9, -13, -16, -26, -13, -18, 42, -16, -6, -19, 31, -12, -3, -8, 0, -14, 3, 36, 59, -6, 24, -13, -16, -3, -8, 4, -10, 30, 8, -14, -6, -18, 6, -4, 34, -6, 27, -22, -28, -5, -7, 10, 4, -13, -19, 6, -14, 3, -40, -2, -1, -4, -41, -11, 6, 25, -28, 14, 12, -13, -5, -13, -2, 7, 13, -10, -9, 14, -17, 1, 3, -6, -4, 14, -40, -21, -8, -22, -37, 28, -28, 0, 1, -17, -4, -10, -22, 3, 31, -2, 2, 35, -44, 7, -48, -28, -35, 3, 11, 22, 16, 3, 58, 5, -2, 2, 5, 14, -24, -10, -21, -14, 13, -10, 0, 4, -5, -28, 0, 37, 18, -1, -12, 18, 7, -4, -55, -21, -21, 0, -14, -14, 0, -22, 7, -18, 40, 13, -18, -21, -3, -13, -12, -5, 13, 11, 1, 1, -21, -13, -22, 27, -50, 8, 3, -41, 6, -10, 5, 1, -7, -10, 15, -17, -29, -15, -22, 14, -50, -7, -31, -25, 13, -9, -28, 17, 3, -5, 11, -12, -26, -6, -12, -10, -1, 7, 
  -17, -34, 1, -10, -23, 6, -2, 0, -18, -14, -4, -1, -18, 12, 1, -3, 5, 6, -6, -12, 5, -4, -1, 4, -18, -16, -5, -14, 0, -10, 19, -11, -1, -6, -18, 0, -1, -8, 3, 21, -9, 1, -5, -4, -5, -16, -8, -16, -17, -2, -11, -1, 0, -14, -2, -8, -18, 9, -2, 2, -6, -10, -12, 4, -10, -12, -5, 4, -11, 6, 5, 2, 9, 7, 4, 4, 5, -4, -12, 7, -2, 9, 16, -18, 13, -7, -3, -18, -12, -14, -27, 7, 5, 3, 4, 3, -15, 13, -26, -4, -17, -14, -8, -6, -10, -4, 0, -16, 5, 17, -4, -18, -19, 7, 7, -3, -21, -1, -6, 5, 17, -5, -7, -20, -11, -7, 2, 1, 1, -13, -10, -9, -13, -16, -12, -7, 0, -14, 8, -17, 3, -7, -20, -3, 2, -6, -7, -5, 1, -11, -4, -4, -1, 2, 4, -2, 7, 13, -5, 8, -15, 6, -15, -19, -4, 8, -7, -3, -2, -4, -6, -19, -6, -6, -2, -13, -14, -12, -2, -2, 1, 11, -5, -17, -11, -11, 2, 10, 9, -7, -6, -16, -9, 4, -4, 9, -19, -6, -3, -8, -9, 6, 3, -5, -5, -2, -12, 6, 1, -4, 10, 7, -3, -14, -10, 4, -11, 0, -2, -1, 8, -16, -3, 5, -9, 4, -11, 0, -13, 12, 4, -18, -6, -35, -8, -11, 5, 4, 6, -1, -6, 3, 6, 1, -13, 5, -6, -10, -6, 9, 11, -9, -3, -5, -6, 1, -17, -20, -1, 1, 7, -14, 1, 6, 3, 3, -21, -8, -11, -14, -19, 6, 11, 0, -7, 5, 11, -6, -8, -6, -14, 11, -5, -10, -9, -10, 4, -3, -19, -9, 2, -7, -16, 15, 10, -12, 6, -10, -20, 3, -20, -7, 0, -6, -19, -21, -7, -27, 2, 22, -7, -10, 2, -5, -2, -8, -2, 10, 8, -1, 4, 1, -10, -8, 6, -10, -16, 0, -19, 3, -9, 11, -20, 7, 2, -5, -7, -3, 6, -21, 0, 8, -16, -1, 6, 0, 0, 2, 0, -6, 18, -11, 5, 4, -19, 4, -17, -11, -2, -4, 17, -10, -11, -21, -3, -7, -16, -11, -23, -13, -8, -2, -12, -6, -18, 11, 0, 2, -6, -3, -7, 8, 16, 4, 1, 0, 5, -29, 5, -4, 5, -12, 2, 8, -23, 5, 6, 8, -13, 8, 3, 9, -5, 0, 7, -17, -5, -5, 2, 3, -5, 9, -6, -12, -16, -18, 0, -10, -1, 6, -9, 4, 4, 2, -6, -15, -23, -9, -27, -18, -15, 1, -11, -5, -16, -6, 6, -11, -14, -10, 0, -19, -13, 0, -9, -9, 18, 5, 3, -12, -3, -24, -19, -2, -6, -3, 2, -13, -4, -5, -10, -17, 4, -8, 0, -13, -6, 0, 1, -9, -21, 4, 6, -13, 0, 4, -10, -10, -4, -11, 5, 16, 9, 4, -15, -8, 2, 2, -15, -42, -10, 8, -16, -10, 9, 12, -2, -1, -10, -12, -4, -7, 0, -14, 2, -15, -10, 13, 8, -6, 11, -5, -19, 6, -8, 20, -18, -6, 1, 2, -5, -17, -2, -3, -5, -7, 1, -5, -1, -12, -4, -11, -5, -5, -8, -3, -3, -2, 13, -3, -10, 0, -8, 7, -9, 0, -4, -13, 5, 5, -5, 2, -1, -8, -11, -1, -8, -6, 7, -1, -13, -17, 9, -12, -12, -6, 0, -17, -16, 8, 8, 7, -28, -10, 8, 4, -6, 0, 15, -14, 6, -12, -14, -23, 6, -16, -8, -13, 13, 7, 6, -11, 15, 4, 12, -6, 2, 0, -1, 0, -8, 7, -17, 2, -6, 1, -7, -8, 3, -10, -18, -4, -29, 0, 9, 7, 2, 1, 20, -2, -5, 5, -19, 3, -4, -2, -25, -9, -10, -2, -10, -6, -14, -11, -7, -12, 6, -6, -3, -1, 6, 1, -15, -15, 9, 7, -2, -9, 0, 4, -10, 6, -15, 3, -6, -13, -21, 13, -11, 9, -16, -11, -13, -3, -14, -6, 19, -15, 0, -8, -1, -5, -1, 17, -14, -1, 13, 0, -19, -5, 5, -16, 9, 3, 0, -4, -6, -13, 2, 2, 3, 4, -2, 1, -14, 2, 4, 10, -10, -10, 1, 8, 2, -17, 0, -6, 5, 14, -10, 6, -16, -8, 5, -1, -8, 1, -19, -1, -13, -6, -4, -4, 10, 0, -4, 5, 2, 7, -2, 12, 10, -1, 9, 8, -1, 8, -9, 16, 0, 11, -5, 3, -1, 8, -16, -7, -2, -13, -19, -11, -11, 13, 3, 11, 8, 11, 11, -6, 17, -6, -10, -8, -15, -17, -16, 9, 7, 5, 7, 2, 7, -11, -11, -1, -15, -19, 3, -12, 7, -18, -13, -19, -10, 1, 7, 6, 1, -6, -8, 9, -11, 4, -20, -14, -9, 4, -11, 0, -2, -4, 15, 15, -20, -4, -22, 5, 3, 11, 10, -17, 14, -4, -18, 5, -13, 12, 8, -9, 14, -18, -8, 3, 7, -5, -1, -8, 3, 2, 6, -9, -13, 7, -9, 12, -16, -6, -14, -7, 9, -15, 2, 4, -1, 7, -5, -13, 0, -11, -7, -12, -3, -8, -20, 0, -15, -8, -12, 1, 1, 1, -7, 6, -4, -11, -7, -7, -13, 5, 25, -3, -13, 15, -4, 4, -1, -19, 9, -2, -4, -8, 10, -2, -8, -15, -24, 13, -8, 10, -7, 14, -13, -5, -3, -12, 20, 10, -6, -3, 3, -9, 6, -3, 12, -8, -2, -3, -6, -9, 8, -6, 10, -7, -15, -8, -7, -9, -5, -1, 1, -7, 11, -9, 7, 7, -25, -9, 3, 4, 9, 6, -9, -5, -2, 8, -3, 13, 7, 9, -10, 6, -2, -20, -9, 7, -9, -2, 1, 3, -1, 7, -4, 15, 4, 6, 8, 16, 0, 4, -1, -18, -18, 3, 10, 2, -1, 9, -24, 7, -6, -19, -8, 7, -13, -6, -18, 8, -6, 11, -20, -7, -9, -19, -4, -6, 8, 0, 1, 0, -12, -11, -9, -2, -4, 6, -4, 0, 8, 9, -8, -21, -7, 6, -8, -6, -25, -1, -11, 12, 2, 2, 2, -4, -2, 15, -18, 1, -9, -4, -15, 1, 9, -5, 2, 3, 
  -23, -9, -13, -31, -3, 2, -7, 3, 10, -12, 0, 18, 7, 16, -4, -5, -6, -6, -9, 18, 16, 5, -63, -21, -8, -11, 8, 9, -61, 2, 1, -22, 29, -15, -25, -7, -31, -4, -19, 18, 5, -46, -33, 12, -12, -3, -7, 17, -37, 2, 5, -25, 9, -29, 13, 16, 9, -55, 89, 19, -6, 15, 10, 36, 11, -5, -14, 5, 13, 1, 7, -2, -2, -15, -3, 7, 23, 28, -13, -4, -27, 10, -1, -15, -27, 8, 24, -29, 13, 13, 13, -19, -15, 17, -4, -35, 3, 9, -10, 13, -8, -32, -57, -4, 77, -16, 0, 16, 1, -8, 5, 17, -8, -49, 2, -13, 23, -4, 6, 16, 23, 10, 11, -2, -4, 27, -11, 22, 3, -43, 2, 14, 23, 36, -8, 13, -1, 16, -23, 11, -1, -10, 19, -38, 21, 13, -9, -23, -9, 2, -7, 4, -2, 1, -7, -11, -26, 4, -1, -4, -10, -39, 55, -8, 29, -12, -3, -6, -37, -3, -23, -11, 10, -7, -4, -35, 22, -47, -15, 0, -2, -2, 2, 13, 3, -12, 2, 8, 2, -6, -21, -82, -10, -12, 5, 3, -2, -5, 22, 1, 18, -1, -2, -26, 15, 25, 9, 39, 19, 3, 0, -14, 9, 7, 12, -1, 2, 17, 39, 4, -14, -5, 21, -24, -2, -7, 0, -34, 30, -11, 7, 10, 22, 10, 56, 9, 8, 10, -19, -22, -23, 1, 8, 1, 2, -9, -25, 11, -34, 21, -13, -8, 7, 3, 0, -7, -11, 10, 3, -21, -5, -11, -23, 1, 16, 17, 8, -6, 31, -1, -1, -9, 10, 2, -2, 13, 5, 52, -49, -4, 17, -16, 3, 13, 17, -2, 13, -32, 20, 6, -10, 3, 29, 2, -7, 53, 18, -17, -13, -9, -46, 5, 14, 1, -34, -17, -5, -71, 10, 1, 2, -25, 6, 7, -19, 12, 27, 7, 3, -16, 14, -16, 6, -1, -12, 0, -36, -4, 3, 10, -8, 0, -13, -4, -11, 14, -14, 13, -3, -6, -31, -2, 9, -8, 10, 5, 27, 17, -15, -5, 21, -29, 4, -23, 14, 8, 15, 27, -11, 1, -64, -14, 10, -15, 7, 13, 9, 5, -38, -10, -6, -6, -31, 5, -7, -8, 0, 18, -6, 2, 13, -22, -2, 31, 10, -23, 14, 0, 31, -7, -4, -1, 9, -35, -33, 10, 6, 0, 8, -3, -43, 5, -8, 0, 4, 15, 2, 26, 11, 11, 1, 17, -38, -2, -11, -13, -41, -26, -10, 6, -29, -12, -13, 8, 36, 11, 6, 13, 10, 1, -13, -62, -2, -47, -3, -16, 25, 22, -15, 8, -3, -9, -1, 1, 4, 3, -32, -55, 3, 13, 14, 1, 3, -4, 14, 3, -5, 8, 2, -17, 7, 32, -18, -7, 12, -14, -26, 9, 11, -7, 6, 3, -8, 5, -22, 8, -1, 10, 35, -12, -4, 10, -19, 19, 2, -13, 17, 3, 22, 28, 7, 1, -11, 2, -61, 17, -7, -20, 0, 6, 10, -15, 14, -13, 16, -6, -40, 11, 16, -13, 3, 7, 0, 9, 13, -14, 2, 10, -20, 16, -4, 42, 12, 0, -9, -4, 5, 15, 8, 13, -10, -5, -14, 36, -35, -21, 2, -24, 2, 2, 62, 12, 48, -8, 12, 2, -17, -4, -6, -7, -20, 11, 7, -3, -15, 6, -48, -6, -8, -7, -26, -21, 9, -20, -11, 2, 11, -2, 17, 5, -56, 18, 10, -5, 4, 11, 13, -7, 35, -1, -19, 11, -13, 34, 13, 39, 15, 10, 7, -12, 8, 1, 21, 5, -3, -7, -59, 12, 15, -16, -5, -5, 5, 21, 3, 38, 15, -26, 15, -5, -1, 13, 26, 31, -21, -12, 20, 24, -6, -9, -2, 87, -1, 16, -14, 0, -8, -7, -27, 11, -10, 1, -10, 10, 20, 7, -6, 14, 5, 21, 0, 31, 29, -22, 23, -5, 2, 19, 1, -30, 11, -2, 5, -7, -6, 21, -58, 17, -1, -30, 20, 20, -11, 34, 16, -4, 5, 12, 9, -1, -10, -9, -8, -40, -24, -13, 1, 12, 17, 17, -46, 10, -12, 9, -1, 4, 18, -53, 7, -58, -31, -23, 30, 13, -35, 34, -2, -13, 13, 6, -11, -5, -17, -27, 12, -4, 2, -12, 11, 24, -8, 0, 13, -19, 11, -11, -12, -6, 10, -17, 0, -2, -15, 12, 21, 8, 12, -11, 3, 5, -9, 5, -27, -11, -3, -18, -1, 18, -13, 2, -6, 13, 8, -7, 10, 28, -18, 9, 13, -16, -27, -14, 4, 39, -1, 20, 14, 6, -21, 3, -18, 17, 9, 10, 0, -34, -21, 15, 0, -15, 8, -9, 1, 18, 10, 21, -15, 16, -14, -26, -6, 57, -3, -1, 28, 0, 3, -6, -16, 21, 21, -36, 9, -18, 12, -5, -38, -7, 37, 7, 5, -25, 12, -2, 14, 1, -20, 29, 8, 3, -16, 11, 6, 13, -7, 18, 9, -16, 0, 41, -10, 12, -5, 8, -8, -56, -14, 1, -7, 5, -7, 26, -5, -21, 50, 0, -8, -2, 16, 6, 11, 18, -9, -2, 5, 3, 10, -4, -27, 9, 4, -6, -6, 5, -17, -17, -12, -4, -37, -23, 5, 41, -2, -12, 11, -1, -11, 8, 16, -3, 16, 13, -50, 11, -17, 20, 31, 12, 13, -35, 21, -6, 15, -30, -26, -7, 3, 8, 14, 0, 15, -2, -1, -24, 2, -8, 3, 1, 9, 21, 2, 15, -1, -3, -11, -47, 2, -1, 0, -10, 4, 9, -12, 3, 12, 18, -1, 41, 2, 37, 14, 2, 18, -4, 6, 1, -7, -14, 14, -25, -18, 21, -5, -1, -1, -4, 35, 35, -6, 8, 13, 38, 11, 20, -20, -28, 22, 2, 29, 25, -45, -35, 4, 17, 5, 2, -3, -16, -52, 7, 7, -18, -1, 18, 11, 7, -1, 15, 9, -12, -4, 5, 10, 30, 10, 29, 1, 22, 27, 7, 19, 11, -6, -12, -11, -7, -24, 20, 31, -6, -4, -16, -14, 12, -16, 0, -37, 35, 2, 3, -1, -32, -8, 11, 18, -38, -15, -4, -7, 46, -12, -4, 25, 15, -18, 18, -63, -1, 48, -2, 7, -1, 0, 0, 
  -13, -37, 15, -19, 14, -15, 5, 6, 8, -16, -16, -13, 15, -15, -9, 19, 22, -7, 7, 0, -11, -4, 2, 27, 1, 19, -2, -6, 11, 15, 8, 8, 24, 39, -8, 16, 36, 15, 30, 13, 15, -35, 5, -3, 2, 2, 5, -32, 12, 0, -6, 5, 9, -5, -6, 7, -9, 47, 39, -8, -33, 11, 3, -11, 1, 8, 26, 31, 14, -2, -10, 15, 17, 13, -7, -4, 39, 24, -13, -8, -9, 16, -4, -22, -42, -8, -8, 14, -10, 6, -28, 9, 7, 11, -5, -38, 9, 12, -22, 5, -11, -14, -17, 4, 23, 3, 14, 6, 0, 10, 14, 16, 19, 42, -5, 15, -2, 14, 33, -14, 6, 0, 9, -20, -7, 20, 5, 31, 10, -23, 11, 13, 1, 11, 16, -1, -6, 7, 14, -14, -5, -1, -3, 56, 32, 1, 1, 16, 30, 8, -16, -6, -4, 10, 13, -17, 4, 9, -10, -3, 28, 49, -14, -32, -9, -9, 3, 23, -36, 4, -11, -2, -18, -18, -18, 3, 10, -28, 15, -12, 11, -4, 13, -22, 28, 21, 4, -1, 11, -8, 7, -17, 21, 6, -1, 12, -6, 16, 13, 6, 29, 31, 11, -35, 13, -6, 24, 27, 55, 2, -18, 4, -12, 13, -1, 15, -4, -3, -8, 2, 33, 3, -2, -6, 7, -9, -11, 25, -21, -1, -3, -16, 25, -38, 41, 17, 12, -5, -3, 1, -23, 28, -12, 3, -4, 0, 61, -4, 5, -1, -33, -6, 14, 15, 12, -6, 1, -80, 2, -27, 28, -26, -32, 2, 7, -41, -8, 5, 7, -17, -7, 10, 9, -2, 5, -7, -4, -12, 1, 8, 6, 5, -5, 19, -6, 7, -14, 30, 10, 29, -34, 13, 27, 11, 37, -1, 14, -30, -52, 7, -5, 17, -7, -40, -11, -17, -3, 17, 4, -38, 5, 2, -16, 19, -7, 11, -58, 13, 11, 30, 7, 11, -11, 4, 11, 8, 29, 5, 16, -8, 8, 18, -2, 20, 7, -7, -15, -14, 9, -24, -26, 0, 16, 57, 10, -7, -22, 4, -3, 10, 11, -13, -17, -4, -42, 6, -67, -14, -26, -9, -24, -28, 19, -10, 16, 28, 3, 22, 5, 11, 16, -7, -9, 17, 22, -2, 66, -7, 11, 8, -10, -13, 14, 14, 2, 0, 20, -29, 3, 0, -5, -3, 1, 3, -13, -20, -8, -8, -7, 14, 3, 5, 0, 11, -1, 2, 2, 12, -1, 9, 8, -17, -8, 5, -2, -3, -49, 25, -21, -19, -7, -4, -20, -9, -18, 4, 15, 5, -28, -7, -2, -11, -19, -6, 15, 18, 65, -7, -12, -77, 4, 2, 6, 0, -14, -2, -33, -9, 9, -31, 12, 33, 1, -7, 26, 7, 14, -9, -1, 1, 12, 35, 3, 17, 22, -1, -4, 13, -34, 2, -13, 11, 5, 9, -5, -11, -9, 19, -13, -11, 0, 13, -41, -17, -24, 0, -1, -7, 14, -33, 28, -7, -35, -9, -23, 3, 23, 27, 1, -18, -36, 3, 29, -4, -20, -2, 27, 19, 1, 5, 15, 17, -54, 6, -12, -28, 13, -37, 9, 4, -13, -3, -12, 3, 10, 8, 16, 3, 11, -8, 2, -7, -1, 3, -8, 2, -3, 16, 0, 8, -12, 2, -7, 46, 4, -3, -32, 0, -27, 5, 38, -5, 1, -16, -29, 13, -32, 7, -15, 19, -30, 10, 16, 30, 17, -18, 15, -32, -5, 69, 9, 13, -35, 3, -4, 0, -8, 2, 16, 3, -8, -1, -45, 11, 5, -12, -3, 11, -1, -8, 14, 6, -6, 7, 17, -27, -45, 1, -12, -3, 31, 16, -11, 9, 0, -1, 14, 10, 21, -15, -42, 9, -20, 16, -44, -4, -11, -11, 17, -26, -14, 1, 1, -11, -8, 3, 17, 14, -19, -5, -18, 7, -37, 2, -1, -11, -8, 8, 6, 19, 4, -4, 6, -13, -4, -6, 12, 2, 14, 5, -17, 1, 0, 6, 6, -30, 6, -3, 2, -21, -8, 10, 20, -46, 7, -3, -1, -4, -4, -7, -6, 10, 0, -14, -12, -26, 20, -14, -10, 14, -31, -57, -11, -10, -19, -53, -10, -8, -33, -22, 6, 28, 31, -19, 0, 29, 12, 19, 6, -9, -3, 8, -18, 15, -8, 9, -2, 11, -19, 6, -11, -3, 19, -5, -8, -21, -11, 4, -22, 10, 29, 12, 6, 10, -10, 12, 8, -3, 3, -8, 3, 2, 12, 8, -23, -22, -11, 9, -5, -10, -9, 5, 0, 5, 7, 12, 23, 5, -16, -19, 0, -9, 48, -36, -5, 10, 5, -4, 17, -4, -17, 14, -20, 3, -1, -31, 21, 12, -14, 46, 0, -10, 0, -15, -16, -18, -20, 6, 4, 5, 6, -26, -4, 29, 37, 37, 0, 2, -18, 16, -6, 13, -4, -14, 8, -2, 15, 17, -9, -37, 12, 22, -7, 14, -55, 17, 12, -15, -9, -7, -8, 6, -42, 6, -8, -6, 6, 26, 8, -20, 10, -31, -5, 12, 1, 16, 52, 4, -27, 10, 9, -9, 24, 22, 15, -1, -1, 2, -5, 15, 15, 6, 1, -7, 16, 13, -8, -6, 16, -2, 17, -7, -6, 5, -3, 29, -9, 4, -28, -32, -5, 26, -6, -30, -8, -27, -18, -13, -16, -4, 23, -27, -18, -7, 7, -17, 55, 22, -6, -11, -6, -78, 18, 8, 14, -5, 0, -17, -45, 1, 9, -5, -12, 15, 7, 6, -2, -3, 64, -28, 4, 8, 9, 4, -9, 15, -32, 13, 3, 16, -3, -39, -5, 7, 2, 50, -10, -56, 8, -59, 3, 4, -13, -6, -30, 4, -2, 1, 18, 46, 24, 4, 34, 15, -6, -3, -7, -25, -25, 7, -21, -22, -4, 13, 0, 27, -15, 17, -14, 4, 17, -33, 3, 23, 1, -5, -4, 13, 6, -32, 16, 28, -6, 12, -43, 10, -30, 4, 25, -7, -15, 11, -8, 26, -2, -19, 26, -8, 2, 4, -28, 4, 4, -15, -14, 15, -14, 15, -9, 37, 13, -7, 7, 12, -31, 12, -6, 9, -7, 4, 20, 31, 35, 15, -16, -14, -7, 3, -15, 0, 35, 6, 5, 13, -2, -6, 3, 17, -6, 7, 10, 6, 3, 12, 
  22, 15, 7, -21, -18, -13, -19, -18, -2, -63, 29, -5, -6, -4, -15, -1, 17, -29, -12, 8, 3, -33, 13, 24, -15, 12, 6, 17, -58, 33, -31, -12, 17, -57, 31, 9, -12, 5, -43, -2, -18, 8, 24, -4, 20, -13, 16, 19, 32, 26, -2, -22, -32, -3, 7, -12, 2, -13, -27, -7, 7, 14, 11, 14, 11, -39, -41, -17, 11, 12, -16, -45, -11, -65, -7, 19, -36, 14, -3, -20, -28, -6, 19, -6, -33, 0, -6, -39, -17, 8, -11, 14, 15, -30, -8, 6, 2, -15, -9, 21, 10, -47, 21, -10, 80, -19, -37, 48, 26, -47, 13, 5, -11, -20, 10, 25, 17, 9, 16, -14, -20, 8, -7, 9, -2, 91, 25, 21, -24, -8, -11, 14, 18, 6, 13, 8, -14, 52, -40, -20, -7, 9, 8, 8, -25, -30, -18, -45, -11, -6, -13, 4, 6, 6, 24, 8, -15, -8, 5, -8, -52, -5, -5, 3, 40, -27, 12, -14, -6, -13, 16, 7, -20, -8, -21, -5, -14, 49, -1, -15, -33, 22, -53, -7, -16, 28, 4, -45, 18, -12, -36, -5, -25, -28, 15, -27, -5, 22, -7, 45, 11, -35, -20, -26, 27, 76, -31, -21, -68, 16, 24, -1, 9, 20, 3, 17, -3, -15, -28, 7, 45, -1, 7, 7, 24, -1, 13, 31, 10, 4, -2, 21, -38, 16, 9, -11, 36, -22, 18, 32, 4, -30, 78, 9, 12, -29, -39, 6, 32, 75, -12, -4, 6, 22, -59, 7, 36, 58, -2, 11, -8, -40, 8, 24, 26, -26, 2, 7, 2, -19, 6, -27, 16, -11, -5, 12, 15, -7, 10, 1, 31, 4, 5, 27, -6, 2, -43, 0, -24, -91, 25, 3, 15, 8, -31, 10, -7, -6, 43, 8, 18, -19, 59, 3, 27, 10, -6, -34, -23, 20, -22, -46, -11, -9, 39, -14, 7, -7, 9, 39, 12, 28, -38, 7, 7, -23, 20, -58, -12, -25, 1, -4, -4, 19, 15, -20, -13, 3, 21, 21, 18, 3, 25, -46, -33, 4, 1, -9, -12, -7, -1, 3, -3, 3, -3, -8, 48, -15, 26, -9, -31, 14, -28, -13, 12, -53, -20, 4, -8, 5, 8, -3, 12, -26, -25, 12, -28, 42, -27, 9, 39, -36, 14, 17, 15, -53, 26, 3, 41, 1, -6, 6, -13, -11, -60, 15, -11, 3, -2, 8, 21, -53, -3, 3, -17, -5, -23, 44, 7, 11, 7, -7, 4, -1, 16, -12, -7, -35, 2, -6, 10, 12, -35, 8, -4, 10, 19, -28, 21, 14, 4, 16, 14, 20, -2, -18, -21, 23, 8, -18, -37, -8, -8, -30, 26, 8, -18, -15, -3, -13, 12, -37, -9, 41, 3, 16, -18, -17, -29, -5, -11, 23, -29, 4, -42, 28, -1, -3, 38, 6, -16, 11, -8, 7, 44, 13, -12, 28, 0, 4, -3, 7, 0, 13, 43, -36, 4, -28, -2, 44, -3, -9, -11, 54, -13, -18, -12, -41, 18, 17, 62, -7, -27, 2, 43, -15, -56, 0, -9, 2, -17, -11, 7, 24, 3, -22, -13, 4, 14, -16, 2, 0, 5, 7, 10, -28, -9, 1, 23, -17, 7, -11, -6, -7, 7, -12, 17, -4, -17, 47, -5, -16, -31, -55, 14, -8, -1, -1, 3, 9, -26, 22, -14, -29, 32, 17, -12, -5, 19, -21, -6, -1, 22, -17, -31, 15, -12, -12, -6, -27, -40, -19, 23, -2, 5, 8, 21, 0, 25, -15, 7, -5, -27, -30, -12, -21, -10, -7, 2, 0, 4, 3, -11, -14, 31, -3, 45, 14, 2, 6, -13, 9, 39, 5, -15, 21, -6, 13, 8, -13, -16, -7, 23, -10, 12, 0, 20, 5, -15, -54, -3, -34, 6, 27, -7, 29, -4, 9, -8, -16, 6, 8, -15, 10, 13, 33, 22, -12, 17, 22, 28, -5, 7, 3, 31, -10, 10, 2, 2, 33, -15, -13, 20, 10, 8, 22, -5, -24, 6, 7, 30, -3, -16, 46, 1, 9, 12, 2, -8, -4, -7, 4, -28, -1, -7, 24, -26, -29, -21, 3, 7, 30, 28, 9, 9, 44, -6, 2, 2, 9, 17, 1, 6, 18, 6, -22, -16, -24, -14, -22, 38, -15, 2, -20, -16, 1, 8, -33, 11, 11, 34, 21, -45, -1, -9, -12, 8, 40, -2, 37, -11, -20, -41, -15, 7, 6, -26, 6, -10, -11, -47, -3, -27, 56, -2, 25, -4, -1, 10, 6, 8, 8, -4, -40, -11, 19, 14, -11, -40, 48, 3, -35, -33, -21, 19, 19, 48, -26, -60, -4, 32, 70, -40, 31, -3, 21, -32, -13, -16, 15, -13, -6, -19, 42, -11, -20, -5, 27, -2, -12, 10, -11, -1, 3, 5, -23, -16, 9, 3, 30, 57, -3, 4, 13, 20, 11, -37, -23, 8, -21, -8, -28, 4, -2, 21, 23, -16, -14, -6, -17, 11, 39, 0, -12, 15, 20, -3, -3, 28, 2, -28, 2, 6, 1, -6, -25, -17, -5, 23, -4, 16, -18, -16, -13, 27, -18, -20, 32, 17, 20, 23, 16, -30, 1, -21, 7, -8, -9, 42, -9, -5, -9, 15, -1, -36, -6, -2, -2, -10, 44, 1, 37, 20, -20, -8, -18, 26, -10, 7, 44, -62, 7, -20, 14, -12, -8, 3, 1, -8, 3, 8, 38, -10, -17, -43, 5, -20, -17, 7, 3, -17, 20, 36, -42, -12, 17, 66, -3, 25, -35, 16, 2, 21, -4, 5, 28, -11, -20, 22, -1, -30, 23, -36, -18, 11, -32, 7, 49, 6, 17, 8, 6, 24, -3, 21, 17, 16, -16, -8, -31, 17, 19, -28, 14, 50, -1, 7, 24, 24, 2, 0, 4, 8, -38, -15, -31, 11, 1, -18, -24, 4, -2, -5, 18, -25, -12, 6, 35, 3, -27, 2, -37, 6, -21, 1, 2, 15, 4, -11, -36, 6, -2, 10, -4, 50, -7, 9, 27, -15, 11, 37, 13, 17, -5, 21, 5, 6, 2, -29, 17, 5, 0, -17, -16, -9, -27, 27, 38, -8, 13, 23, -8, -1, 57, 9, 4, -14, 8, -13, -16, -15, -2, -3, -19, -70, 25, -15, -1, -7, 18, 17, 14, -36, 5, 
  -29, -5, 0, 15, -14, 7, 14, 2, -22, 0, -1, -13, -2, -23, 5, 7, -10, -9, -8, -9, 14, 1, -27, 3, -3, -61, -1, -8, 2, 10, 8, -31, 7, -3, -54, 14, 5, 5, -5, -12, -7, -44, -5, -12, -2, -3, 1, 28, -30, -6, -1, -37, -6, -45, 2, -7, 5, 0, 13, 5, 28, -18, -3, 13, -16, 8, -29, -13, -5, -11, 3, -41, 14, -15, -4, -1, -1, -13, 2, -7, -19, 1, 2, -26, -19, 11, -25, -30, -3, 9, 57, -4, -28, -10, 9, -14, -5, -15, -3, 0, 25, -23, -53, 9, 43, -3, -17, -2, 9, -24, -6, -16, -3, -44, 6, -15, 44, -1, -43, 3, -10, 6, -9, 16, 2, -1, 1, 10, -16, -28, 5, 3, 8, -35, -8, 4, 2, -2, -10, 0, 6, 3, 7, -78, 28, 0, -8, -17, -11, -4, -6, 10, -10, -11, 6, -22, 5, -16, -18, -5, 3, -1, 0, 5, -13, -7, -11, -4, -19, 25, -3, 7, 8, 6, -2, -24, 31, 0, 27, -1, -27, 28, -23, -13, -14, -31, -1, 8, -15, -19, -61, -49, -8, -19, 17, -27, -20, -17, 20, 12, -5, -6, -4, -35, -7, 7, -11, 10, -20, -1, 2, -2, 0, 9, 14, -19, -15, 5, 14, -19, 11, 28, 26, -8, 10, -6, -20, 10, 19, -4, -9, 0, 2, 47, -1, -18, -44, -11, -31, 9, -44, 30, -1, 1, -14, -17, -45, 5, -37, 0, -55, -3, -9, -4, -25, 0, 8, 11, -3, -49, -5, -31, -5, 1, -12, -17, -14, -7, -18, -6, 5, -23, -3, -11, -18, 15, -19, -35, -23, -7, -1, -20, 1, -2, 46, -5, 3, -45, 5, -22, -17, -14, 4, -14, -10, 4, -17, -23, 72, -7, -95, -1, -1, -42, -33, -17, -15, 0, 9, 9, 8, -10, -6, -33, -48, -1, 19, -15, 7, 8, 10, 5, -10, -23, -12, 2, 1, -36, 18, -16, 4, 18, 6, -22, 4, -2, -28, 0, -5, -45, -34, 0, -19, -2, 3, -4, 64, 8, -31, -13, 0, -2, 0, -5, 22, 8, 38, -9, -19, -12, 10, 1, 4, -3, -9, -6, 4, 2, -5, 23, 7, -15, -38, 5, -4, 7, 5, -7, -1, 17, 7, 5, -18, 10, -17, -7, -19, -5, -16, -3, -7, 4, 1, -14, -38, -14, 9, -9, 5, 29, -45, 2, 7, -23, -15, -17, -31, 27, -10, 15, 7, 1, -29, -20, 5, -13, -40, -35, -29, -59, -24, -15, -28, -9, -23, -7, -9, -8, -29, 8, -2, -2, 6, 9, -40, -15, -4, -13, -39, 12, -10, -30, -2, 11, 12, 12, -7, -39, -8, 33, -2, -8, -8, 0, 3, 11, -9, -9, 3, -52, -11, 0, 1, -1, -29, -5, 3, 5, -18, -14, 15, 14, 2, -2, 6, -2, 1, -1, 6, 22, 1, -17, 6, 26, -39, -10, -5, -12, -25, 1, -8, 2, 31, -4, -54, -7, -22, 43, -21, -21, 26, 1, -48, -7, 8, -22, -29, 10, -13, -8, 1, -15, -16, -19, -4, -26, -5, -20, -12, -1, 10, 21, -15, -30, -7, -43, -20, -15, -22, -13, 4, 20, -2, -14, -7, -6, 15, -39, -5, -16, 5, -27, -15, 15, -5, -27, -26, 1, -16, 4, -41, -2, -1, -27, -11, -9, -47, -3, -11, -44, -8, -54, 7, -6, 1, -12, -10, 1, -17, -42, -44, -15, -11, -1, -7, -33, -7, 7, -23, -5, -40, -5, 2, -23, 7, -23, 8, 6, -2, -23, -4, 8, -1, 0, -4, -43, -30, -4, -18, 7, -3, -14, 24, 4, -45, -13, -1, -1, 2, -26, -50, -6, 36, -15, 37, 6, 17, -2, 6, 11, 4, -59, -2, 7, -11, 35, -5, -26, -43, -3, 27, 6, 1, -7, 11, -3, -2, -6, 2, 65, 4, -3, 5, -16, 22, -13, 8, -17, -7, -9, 1, 15, 8, 8, -18, -13, -25, -8, -9, -27, 15, 15, -15, 22, -16, -11, -13, -12, 1, -43, -26, -8, -25, -63, -25, -9, -27, 31, -23, 7, -36, 19, -21, -14, 8, -7, -1, -28, 0, -18, 30, -25, -6, -3, -53, -40, -25, -44, -6, -8, -2, -28, -44, -29, -13, -4, -6, -14, -16, -19, 25, 14, -16, 5, -11, -42, -30, -19, 1, -11, -16, 8, -25, 7, 1, 8, 13, -3, -4, -17, -38, 4, -38, -25, -9, 1, -20, -5, -37, 11, -49, -24, -5, -48, -20, 28, 10, -14, 8, 8, -28, 0, 16, 54, 46, -9, -4, -27, -1, -14, -46, -30, -4, -10, -2, -24, -5, 2, -4, -18, -15, 12, -36, -16, -22, -3, -12, 1, 1, -16, -31, -13, -17, -13, -14, 7, 6, -9, 14, -28, 84, 3, -2, 28, 0, -14, 31, 2, -24, -19, -9, -17, -18, 3, 47, 2, 28, -14, -18, -7, 28, -7, -9, 4, -13, -30, -15, -24, -10, 10, 9, 22, 3, -11, 9, -44, 3, -7, -42, -4, 17, 22, -39, 10, 31, 23, 11, -18, -11, 19, 1, 2, -6, -9, -20, 6, 15, 5, 19, -23, -7, -13, 23, 10, -51, -23, -4, -15, -26, -26, -3, -3, -19, -29, 0, 8, 7, 12, 55, 14, 7, 15, -18, -37, 15, 7, -33, 11, 0, -6, 54, 20, -18, -4, -4, -5, 22, 3, -28, -15, -13, -1, -16, -61, -1, 26, -8, -9, -28, -28, 32, -22, 2, -15, -7, -18, 8, -19, 2, -2, 1, 70, 5, -3, -10, -26, -30, -6, -14, 43, -13, 17, -11, -6, 56, -20, 3, -3, -31, 5, 16, -38, -30, 44, -21, -15, 5, 20, 7, -6, -16, 52, 8, 4, -22, -20, 17, -25, -4, -1, -75, -59, -27, 4, -6, -16, -2, -26, -56, -13, 5, 4, -17, 3, 44, 1, 25, 41, -34, 9, -13, -15, -3, -10, -32, -1, -33, 23, -13, 6, 9, -2, 2, -2, -7, -12, -35, -8, 32, -1, -15, -24, 19, -11, -69, 34, 19, 1, -15, -15, -20, -18, 15, -9, 24, -23, -3, 7, 16, -24, 52, -10, -12, 10, -13, 3, -31, 6, 0, 2, 0, -25, -2, -9, 
  1, -5, -11, -16, -2, 0, -13, -5, 1, 8, -5, 1, 6, -2, 6, -4, -3, 11, -11, -10, -18, 6, 7, -14, -2, -8, -12, -16, -6, -10, -12, -16, -2, 5, 10, -8, -10, -19, 9, 3, 1, -5, -9, 3, -2, -4, 2, 1, -8, -16, -10, 0, 2, 2, -9, -7, 0, -1, -1, 8, -15, -3, 6, -1, 1, -17, -15, -3, 4, 6, 11, 9, -7, -13, -5, 7, -2, -10, 7, -14, -17, -2, -1, 2, -7, -17, -6, -17, -8, 9, 6, -1, -12, 1, 1, -10, -11, -15, -5, -4, 3, 8, -8, -11, 5, -18, 8, 5, 4, -9, -4, -10, 2, -8, -20, 7, 7, -3, 4, -11, 3, 3, -17, -2, 13, 1, -5, -7, -15, -5, 7, -6, -15, 6, -13, -18, 0, -1, -6, -1, -18, 19, 2, 1, 0, 3, -15, -18, -16, -9, 7, -9, -3, -18, -17, -2, -19, 6, -8, 2, 13, -19, -11, -1, -8, -7, -10, -9, 2, -13, -9, -6, -9, -5, -3, 5, -18, 0, 0, -11, -10, 0, -13, 5, 6, -4, 2, -1, 2, -7, 6, -2, 13, -10, -5, -13, -8, 5, -7, -17, 4, 10, -15, -3, -13, -5, 3, -10, 6, -4, -4, 2, -14, 11, -5, -7, -6, 5, -9, -16, 6, -2, -9, 0, -2, 0, 10, 11, -5, -5, 0, 5, 0, 1, -8, -10, 3, -2, -7, 6, 4, -12, -16, 11, -8, -1, 7, -6, -5, -16, 2, -5, 9, -1, -3, -4, -20, 0, 16, 2, -11, 2, -12, -13, 10, -3, -10, -1, -4, 15, -13, -7, 12, 13, -16, -10, -11, -8, 7, 2, -17, 2, 3, 8, -2, 7, 9, -17, 5, -18, -10, -12, -11, 4, -17, -16, -5, -13, 4, 9, -1, 8, 5, -9, -13, -4, 3, -7, -14, 1, -4, -6, -9, -12, -18, 5, 0, -10, -10, 11, 6, -1, 5, -8, 4, 6, 9, -15, -9, 5, -6, -17, 6, 1, 8, -8, 6, 20, 2, -12, 3, -20, -7, -13, -11, -5, 13, -6, -6, 3, -10, -13, -9, -15, -2, 6, -6, -4, -9, -1, -1, 5, 4, -12, 10, 8, 3, -3, -8, 12, -4, -17, -14, -16, 2, -17, 4, -16, -4, 13, 5, 0, -17, -16, -7, -5, -1, 0, 16, -4, -2, 4, -11, 3, 5, 1, -13, -7, 5, -14, 6, 2, 3, -1, -1, -12, -12, 4, 4, -8, -2, 14, 6, -10, 9, 4, -16, 11, -4, -8, -1, -19, -3, 7, -10, -12, -14, 13, 7, 17, 1, -5, 11, 11, 2, -8, -10, -12, -10, -9, -12, -20, -1, 7, -13, 9, 10, 0, -2, -4, 0, -3, 1, -13, -8, -7, -5, 4, 6, -3, -1, -14, -10, -3, -10, 4, 1, 8, -18, -12, -3, 10, 3, -2, -13, 5, -16, 18, -14, -9, -6, -8, -11, -2, -4, 1, 8, -5, -8, -8, -18, -6, -17, 1, 7, 3, 3, -18, 1, -7, 0, -19, -18, 2, -1, 1, -11, 2, -1, 2, 6, -3, -10, -1, -18, 5, 7, -4, -10, 3, -8, -5, -10, -5, -3, 7, -6, -1, 11, -19, 6, -13, -10, -10, -2, -15, 5, 3, -17, -15, 18, 6, 10, 8, -4, 4, -17, 6, 7, -13, 2, 5, 4, -4, -14, -3, -7, 0, 5, -6, -9, -15, 1, -15, 4, -19, -18, 1, 0, 1, 13, 3, 5, 3, -4, -16, -12, -15, 5, 8, -13, -5, -8, 8, 1, 7, 5, -4, -14, 6, 12, -12, 16, 6, -8, 2, -5, 9, -13, 6, -19, -10, -2, 18, -15, 14, -10, 10, 9, 7, -8, 8, -13, -13, -10, -18, 3, 9, -7, -19, 1, 13, 9, 9, -21, -11, 5, 3, -19, 1, -18, 5, -3, -6, -9, 17, -7, -9, 8, 8, 8, -7, -2, -13, -6, -7, -3, -1, -17, -2, -2, 3, 6, -9, -8, -11, -2, 2, -4, -7, 1, 5, -12, -3, 16, -6, -7, 10, 2, -10, -18, -1, -8, 9, -10, 10, -7, -10, 3, -15, -3, -16, -6, 13, -2, 14, 4, -8, -12, 3, -17, 5, -12, -3, 6, -10, 0, -6, 4, -9, 2, 7, -2, 6, -12, 3, 3, -13, 3, -5, -3, -5, -3, 10, 6, 5, 0, -4, -4, 6, 1, 7, -14, -6, -9, 1, 6, -1, -6, -1, -6, 10, -2, 19, 6, -2, 3, 4, -16, -6, -5, -15, 8, -2, 3, -10, 12, -15, -15, -10, -5, 1, -5, 7, 11, 1, -2, 10, 1, 4, 7, 10, -10, -10, -4, -16, -7, -4, -6, 3, -15, 2, 1, -20, -3, -4, -7, -10, -11, 4, 7, -13, -5, -1, -11, 2, -17, -2, -1, 1, -11, -11, -9, -1, 8, -18, -19, 3, -15, -13, 15, -2, 6, -17, -10, -10, 10, -3, 9, -15, -5, 6, -21, 1, -16, -10, 10, 5, 0, 7, -13, 7, -2, -1, 12, 4, 7, -9, -13, -8, 0, 8, 2, -1, -7, 8, 1, 5, -11, 7, -11, 5, -14, -17, -18, -13, 7, -15, -5, -18, 4, -18, 6, -7, -7, -10, -12, -1, 1, -10, -13, 2, -3, -16, -9, 12, 3, 15, -16, 4, -7, -13, 12, -14, -11, 3, -15, -5, -17, 0, -8, 1, -3, -14, -3, -4, 9, 4, -18, -8, -4, -3, -1, -11, -6, 8, 2, 5, -12, 11, 6, -17, -12, -10, -1, 3, -1, -6, 4, 7, -15, 2, -4, 6, 4, -16, -13, 12, -5, -7, 7, -15, -14, -13, 6, -12, -13, -8, 7, 0, -10, -15, -9, 9, -7, -19, -11, 6, -8, -1, -14, 6, 11, -5, -2, -4, -13, -14, -8, -11, 3, 4, -1, 10, -14, -11, -9, 3, 15, -10, 10, -7, 14, 10, -1, -3, -24, -17, -5, -12, 5, 2, 2, 6, -14, -8, 4, -8, -17, 14, -11, -4, -2, -17, -10, 8, 8, -14, -8, -7, 0, -9, -3, -2, -12, -10, -2, 6, -11, -1, -11, 3, -19, -17, -7, 13, 3, -7, 2, -3, -11, 13, -11, 0, 16, 1, 11, -4, -13, 5, 3, 2, -3, -15, 
  -6, -8, -10, 5, -9, 67, -3, 3, 39, 27, -17, -11, 16, -27, -7, 1, -3, 26, -9, -13, 3, 29, -42, -8, -11, -34, 19, 3, 15, -23, 47, -12, -10, 3, 0, 0, -48, 6, 16, -15, -2, -5, -18, 19, -44, -3, -4, -4, -14, -35, 9, -6, -3, -19, 15, 13, -8, -43, -20, 15, 18, -1, 9, -7, 0, 9, -4, -71, 12, -19, -22, 24, 13, 29, -15, 13, -7, 20, -3, 7, 28, 11, 4, 16, 3, -6, -6, 42, -46, -1, -2, -1, -29, -8, -4, -10, -11, -19, -20, -18, 5, 52, 23, 3, 41, 13, -10, 17, -15, 57, 4, -16, -14, -12, -6, 10, -13, -7, -30, -1, -12, 0, -4, 1, -9, -4, 14, -10, 10, 10, -25, -8, 16, -31, -18, 13, 6, -7, 51, 12, 2, -15, 3, -37, -12, 25, -1, -12, -17, 5, -16, -36, 7, 1, 18, -15, -30, 3, -8, 11, 32, -23, -25, 3, -9, 32, 28, -20, 19, -42, -23, 3, -22, -6, 6, 12, -9, -14, -31, -23, 6, -1, 16, -6, 23, -9, -9, 0, 9, -3, 11, 6, -7, 25, 17, -14, -33, 19, -23, -13, -9, -5, -5, 19, 2, -21, 27, -18, 7, -6, 0, -8, 4, 4, 18, 5, 3, 10, 29, 2, 6, 8, 11, 5, 1, 3, -1, -29, 6, 30, 1, -3, 0, 0, -16, 8, 16, 8, -4, 8, -18, -34, -33, -7, -3, -4, -51, -23, -9, -29, 32, -1, -16, -7, -4, 3, -26, 32, 7, 8, -4, 10, 0, -20, 3, 13, 9, -23, -1, 45, 3, -22, -4, 21, -7, 0, 8, 23, 6, -12, 6, -53, 10, 9, 5, 0, 49, -26, 12, -3, 17, -9, -25, -6, 16, 11, -16, 7, 9, -2, -4, 0, 4, 17, -3, 13, -2, -53, 14, 5, -2, 23, -5, -5, -52, -16, 5, -2, -2, 59, -9, -1, -19, -40, -4, -6, 2, 5, -6, 1, 1, 11, -17, -5, 3, 7, -2, 17, 14, -1, 8, -7, -20, 15, -1, -2, -6, -16, -20, -15, 7, 12, 12, -14, 18, 6, -3, -1, -3, -5, -27, 14, -1, 49, 15, -11, 3, 2, -34, -57, 10, -9, -38, 11, -18, -3, -73, -8, 12, -18, 6, 9, 6, -46, 8, 26, -14, 18, -22, 5, 6, -5, 8, 14, 25, 2, 4, 1, -3, -33, -42, 24, 8, -28, 1, -9, 5, -53, -6, 14, -2, -6, -20, 3, -10, 5, 12, 21, -50, 7, 9, 29, 35, -7, -7, -47, -17, 0, -24, -38, -16, -5, -17, -19, 6, 4, 15, 9, 2, 19, 10, -36, 2, 26, -11, -3, 3, -45, 14, 7, 5, -10, 3, 34, 7, -3, -48, -19, -5, 22, 11, 10, -11, 7, -16, 14, 11, 7, 17, 15, -7, -1, 0, 7, 21, -15, -61, -19, 15, 0, 15, -13, -5, -5, 1, 8, 0, 3, -18, -26, -24, 2, 25, -11, -16, -9, -33, -24, 3, -5, -12, -12, 11, 1, 1, -5, 11, 12, 1, 9, 16, 16, 17, -10, 10, 17, 8, 10, 8, 0, -10, 8, -5, 12, 20, 42, 12, 22, 16, 18, -4, -6, 1, 14, -15, 17, 7, 4, 16, -5, 82, 14, 24, -14, 12, -15, 26, -15, 15, -4, -24, 5, -6, 9, -8, 4, 11, 18, 7, 26, 7, 36, 10, 14, -36, -1, 4, 21, 0, -18, -3, 8, -26, -9, 5, 47, -12, 15, -13, 34, 9, -1, 9, -14, 3, -11, -13, -12, 28, -39, 12, -10, -13, 6, 15, 35, 15, -2, 18, -34, -43, 12, 14, -4, 41, 8, 18, 12, 0, 20, 28, -5, 11, 23, 36, 0, 43, 2, 6, 37, -30, -21, 1, 29, -15, 17, -3, -16, -3, 10, 12, -10, 6, 21, 11, 3, -2, 16, -14, -19, 20, 16, -10, 0, -21, 18, -2, 0, 8, -54, 15, -19, -4, 3, 14, -31, 20, 28, -10, -28, 1, -4, -15, -15, -8, 11, 7, -18, -34, 35, 16, -18, 14, -24, 2, 18, -6, 42, -5, 0, 25, 10, -9, -4, 6, -10, 7, 14, -15, 34, -7, -20, 1, -15, 5, -4, 32, -2, -6, 15, -4, 31, 15, 0, -12, 8, -18, -44, 17, 10, -22, -9, 3, -26, -3, 27, 14, 38, -29, 11, -9, -3, -1, 21, -1, 0, 19, -3, 7, -2, 67, -10, 14, -4, 11, 0, 9, -3, 2, 9, 24, 29, 6, 13, -47, -12, 16, 3, 30, -23, 1, -3, -28, -34, -23, -28, -7, -20, -10, 4, 28, 33, 15, -3, 15, -12, -10, -2, 0, -15, 4, 25, 1, -35, -11, 2, -45, 4, 7, 10, 1, 28, 1, 30, -6, 27, 10, 2, 0, -40, 5, 35, -17, 2, 13, -12, 13, 13, 10, 1, 6, 25, -27, 5, 19, 18, -21, -13, 8, -4, -19, 6, -1, -5, 22, -5, 4, 59, -6, 13, -18, -18, 3, 8, 14, 103, -20, 14, -21, 19, -18, 31, 45, -13, -14, 6, -14, 17, -37, -19, -3, 0, -8, -1, 19, -31, 8, 5, -6, -12, 13, 27, -17, -6, 25, 18, 11, -1, 61, -10, -20, -16, 21, 3, 1, 6, -5, -15, -15, 7, -4, 11, 5, 26, 39, 14, 8, 5, -3, 19, -9, -39, -1, 14, 4, -13, 49, -14, 64, -14, 1, -3, -6, 36, 51, 12, 16, 11, -32, -25, 4, 2, 4, 4, -12, -1, 3, 2, 10, 14, -3, -7, 20, -1, -5, -6, -2, 5, -7, -4, -2, -1, 8, -4, 19, 18, -20, 11, -2, -20, -10, -9, 24, -9, -18, 10, 6, -23, -10, -4, 22, 8, 1, -19, -8, -8, 54, -19, -3, -5, 21, -8, -22, -2, -11, 0, 10, 19, 35, 6, 3, 7, 5, -19, -28, 5, 9, 7, 16, 8, 27, 10, -15, 8, -37, 33, 4, -5, 11, -1, -15, 6, 10, -18, 11, -7, 21, 13, -3, -3, -22, 2, 30, 15, 6, -36, 0, 0, 2, 16, 48, 14, 15, 2, 17, -36, 0, 3, 2, -15, 18, 3, -4, -7, -13, 21, 11, -13, 14, 3, -6, -16, -26, 5, 
  -8, 2, -8, 3, -10, -13, -4, -8, -14, -18, -17, 7, 6, 14, -10, -15, -1, -5, 3, -15, 2, 1, -16, -8, -8, 2, -3, -1, -5, 15, 12, -15, -11, 12, 1, -16, 0, -1, -3, -5, -19, -14, 2, 8, -11, 17, -7, -18, -15, -2, -3, -2, -2, -8, -4, 7, 19, -6, 2, -14, 7, -14, 5, 4, 5, -9, 6, -1, -14, -6, 3, 2, 3, -11, -14, 7, -1, -4, 4, 3, 0, -10, 14, -7, 1, -3, 4, -1, -11, -4, 5, 1, -11, -13, -4, -4, 2, 3, 7, 9, -15, -8, 14, -6, -3, -17, -15, 13, -7, 3, 17, -15, 5, -2, -6, -11, -3, -15, 1, 11, 1, -6, -2, 1, -19, -4, -12, -1, 10, 2, -1, 2, -16, 9, 3, -7, 3, 8, -17, 7, -8, -12, -1, -8, 15, 7, 4, -4, -1, 12, -4, 16, -1, -11, 4, 6, 15, -7, -10, -2, -9, 5, 6, -17, 4, -1, 5, 8, -6, -14, 2, 4, -8, 7, -19, -9, 1, -7, -18, 14, -14, -16, 6, -11, 2, -19, 2, 1, 4, 3, -5, 6, 8, -8, -18, 0, -8, 2, 14, -11, -9, -17, -16, -2, -17, 8, -8, -9, 11, -14, -14, -1, 14, -8, -19, 4, 0, -10, -4, 0, 2, 5, -11, -9, -15, -3, 6, -12, -3, -1, 6, 8, -1, -9, 3, -5, -5, 2, 7, -1, 1, -11, 5, -11, -16, -17, -8, -9, -6, -12, 19, -2, -13, 0, -5, -4, -8, 12, -13, 4, -15, -10, -10, 8, 6, -3, -17, -12, 9, -3, 18, -16, 4, -4, -4, -2, -1, -8, -7, -1, 7, 5, -3, -16, -6, -6, -8, 2, 4, -3, 6, 2, 7, 3, 9, -14, 7, -5, 8, -16, 2, -4, 4, 19, -17, -9, -9, 4, 3, -5, -15, 13, 5, 4, -8, -2, -11, 7, 0, -8, -14, 5, 8, -2, 13, 3, 0, 6, 0, -1, 11, 8, -5, -6, 7, -5, -8, 16, -8, -3, -7, -2, -18, 9, -5, -10, -2, 4, 2, -11, 17, -18, -7, -17, 3, 5, -4, -7, 0, -10, 5, -8, -8, -6, -6, 12, 19, 0, -8, -14, -18, 13, 0, 6, 11, 3, 15, 8, -11, 0, -15, -1, 5, 1, -13, -14, -6, 13, -8, -9, 0, 9, 12, 7, -14, -6, -5, 6, 0, -2, -17, -16, 6, 13, -8, 5, -2, -3, 2, -2, -4, -2, -15, -12, 2, 8, -19, -6, 3, 14, 8, -7, 7, 10, -17, -4, -1, -17, -2, 2, 7, 9, 2, -12, -12, -6, -19, 8, 10, 5, -9, 8, -19, -5, 0, -16, -1, -13, -2, -3, 5, -13, -1, 10, 6, 7, 9, 1, 16, -7, -9, -1, 1, -12, 0, -10, -17, -1, 3, -1, -17, 13, -4, 5, -5, -7, 11, 4, -8, 1, 0, -10, -8, 7, -9, -13, -17, 11, -13, -11, -10, -4, 15, 1, -7, -8, -14, 5, 1, 6, -3, -1, -2, 4, 9, 0, -12, 0, 11, 15, 1, -11, -6, -5, 10, -10, -4, -19, 9, 10, -5, -18, -10, -2, -5, 4, -6, 3, 11, -8, 6, -11, -15, 3, -15, 9, -8, -4, -15, 4, 3, -15, -17, -5, -16, 5, -12, -19, -9, -15, -14, -1, -8, -8, -11, 3, -6, -12, -2, -6, -6, -11, -14, -14, 16, -12, -8, -11, -2, 7, -13, -18, 7, 6, -4, 0, 8, 3, -7, 10, -7, -5, 5, -18, -14, -6, -18, -12, 13, 16, -13, 6, -1, 1, -3, -2, -4, -15, 1, 6, 7, 7, -6, -12, -6, 0, -3, 2, -8, -16, -4, -18, 8, 1, -3, -7, -16, -6, 7, 10, 17, -7, -19, -3, 1, 8, -12, 7, -6, -4, -13, -16, 18, 6, -11, 10, -12, -3, 7, -19, -12, 2, -13, 0, -4, -3, 12, 7, 8, 0, -13, -1, -2, -6, -1, 3, 1, 8, -9, -3, -15, -18, 0, -6, 6, -3, 6, -16, -1, 11, 8, -15, -1, 4, 8, -5, -13, -5, -19, 4, -14, 11, -2, 1, -2, -14, -3, -11, -3, -4, 6, 3, 9, -4, -2, -4, -15, -18, -9, 2, 13, 1, 12, 0, 0, 7, -17, -1, 1, 1, -1, -9, 7, -7, 8, -4, -15, -6, -7, 12, -15, -5, 16, -12, -5, -2, -15, 12, 5, -3, -12, -15, -8, 7, -19, 8, 16, -4, 5, -12, 5, 2, -6, 3, -18, -9, -13, -7, -7, 10, -11, -9, 0, 0, -15, -18, -3, 8, 6, 10, -11, 7, -11, 2, -17, 11, -18, 1, 6, -13, -5, -18, -1, -11, -4, 1, 7, 4, -1, -15, -19, 2, 8, 7, 10, 6, 6, -18, -13, -3, 3, 15, 6, 12, 13, -11, 19, -16, 2, -4, -5, -5, 15, -12, 3, 12, -6, 3, 1, 0, 4, -9, 3, -15, 17, -1, 7, -1, 14, 6, 6, -14, 3, -17, 1, 0, 4, 0, 8, -8, -8, 4, 4, -12, -17, -8, -1, -19, -13, -14, -8, 7, -7, 7, 7, -12, 7, -5, -13, 7, -8, -6, -11, 10, -16, -7, -9, 3, 1, -5, 3, 9, -7, -2, 1, -16, 1, 0, -19, -6, 10, 6, -14, 0, -16, -3, -9, -10, -17, 2, -12, -12, -10, 5, -3, 4, 4, -9, 12, 10, 4, 5, -17, -9, 7, -14, 2, 1, 6, -6, -5, -13, 7, 2, 6, -6, -9, -4, -3, -1, -12, -18, -1, -3, 1, -7, 3, 1, 15, 4, 5, -10, 4, -1, -10, 4, 7, 4, -5, -10, -11, 5, 3, -9, 14, -14, -17, -1, 5, -1, -8, -18, -4, 8, -6, 13, 5, -1, -10, -6, -2, 9, 0, 6, -19, 3, -1, -1, 5, -9, 4, -12, 0, -2, -7, 8, 2, -9, 11, 3, -12, -13, 3, -18, 4, 0, -18, -6, -6, 6, -3, 3, -9, 14, 1, -15, 3, -14, -8, 1, -7, 14, 8, 2, -6, -18, 3, 6, -12, -10, -1, -7, -4, -16, -4, -11, -5, 2, 6, 11, 3, -16, -7, 4, 4, 1, -15, -1, 6, 6, -9, 1, -3, -4, 
  -5, 11, -11, -10, -14, -3, 12, -6, 3, 5, -14, 12, 0, -7, -8, -14, -7, -3, -9, -20, 7, -13, -13, -13, -6, -6, -8, -5, 10, -21, -1, -2, 9, -10, 0, -4, -14, 5, -11, -13, 2, -13, -3, 6, 12, -16, 5, 5, -4, 0, 10, -11, 8, -9, 0, -17, -16, 7, -11, -13, 1, -21, -9, -12, -14, 7, -5, -3, -4, -20, -8, -1, -3, 3, -1, -11, -11, -14, -2, 0, -4, 1, 3, -10, -3, -1, -5, 2, 8, -8, 7, -14, -1, -9, -7, -3, -9, 7, -1, 1, -1, -15, 0, -10, 10, 4, 1, 2, 5, -18, 2, -1, 4, 11, -17, 8, -13, -5, -13, -2, 1, -5, -1, -13, 12, -2, 7, 2, 3, 0, -16, 0, -12, -6, 1, -4, -2, 13, 1, -4, -1, 1, -18, -8, -7, 4, -11, 6, -19, -13, -11, -9, -17, -3, 1, -12, -12, -12, -12, 1, -17, 6, 2, 5, 0, -7, -4, -4, -13, -14, -15, -9, 2, -1, 12, -16, 10, 1, -16, -8, -8, -18, 12, -8, -8, -12, 0, 3, -13, -16, 7, -5, -12, 5, -10, -10, 7, -2, 10, 2, -14, -7, -18, -8, -9, -8, 14, 3, -5, 0, -12, -1, -16, 6, -6, -6, 3, 13, -10, -4, -18, -9, -12, -13, -3, -7, 9, -13, 0, -1, -15, -12, -14, 5, -16, -19, 5, -9, -10, 8, -3, -10, 0, -15, -2, -5, -7, -2, -1, -14, -13, 2, 4, -18, -3, -17, 7, 0, 1, 8, 0, 7, -3, 0, -3, -5, 4, -2, -9, 6, 2, -8, -3, -20, -18, -12, 6, 3, -3, -12, -2, -11, -17, 1, -6, 1, 4, 4, -12, -12, -4, -12, -5, -11, -17, -5, -21, -3, -1, -6, -7, -10, 3, 1, -5, 2, -17, -12, -2, 9, -4, -13, -7, 14, -4, 7, -16, 5, -3, -1, 4, -5, -4, 1, -11, -6, -10, 2, -6, -13, 5, 6, -5, -8, -4, -13, -1, -18, 1, -5, -12, 0, -16, -10, -2, -5, 5, -6, 11, -9, -3, -6, -2, 1, -16, 4, 11, -13, 9, -10, 6, -12, -20, -4, -18, -14, 5, -9, -6, -11, -12, -14, -12, 0, 10, -11, 6, 2, 8, -16, 5, -17, 1, -3, -2, -19, -12, 12, -9, -10, -8, 12, 3, 6, 8, -14, -8, 1, -19, 1, -21, -2, -6, 5, -5, 0, -9, -17, 4, -8, -10, 7, -17, -4, -9, 8, 6, -14, -18, -18, -11, 12, 5, -16, 8, 10, -10, 10, -10, 7, 9, -18, -10, 2, 6, -8, 10, -6, 2, -3, 3, -7, -1, 0, -10, -13, -6, 4, 14, -2, 2, -5, -8, -6, -10, -11, 12, 6, -19, 3, 3, 13, -20, 4, -8, 7, -13, 8, 12, -13, 7, 2, -6, -11, -9, -2, -20, -9, -2, -11, -7, 9, 4, -11, -3, -15, -2, -15, -15, -2, 5, 4, 5, -10, -13, 12, 4, 1, -3, -10, -7, 6, -3, 13, -1, -14, 5, -5, 2, -7, -13, 1, 11, -5, 0, -7, 5, -5, -13, -1, -6, 6, -7, -3, -3, -7, -12, 0, -11, -2, 13, 6, -5, -3, -6, -14, -7, 5, -1, -7, 1, 3, 3, 8, 3, -3, -17, -14, 2, 7, 12, -2, -2, -1, -11, -13, 5, -21, 9, 9, -14, -19, 7, -10, -8, 7, -18, 9, -5, 2, -6, 2, -15, -12, -11, 0, -1, -1, -19, -11, -12, -8, -7, 0, -7, -11, 2, 7, -6, -18, 12, 1, 6, -14, -10, 2, -10, -2, -13, -8, 2, -8, -8, 0, -17, -13, 5, -4, 12, -11, -1, 11, -13, -11, -12, -11, -2, 4, -17, 5, -8, 4, -17, -10, -8, 11, -16, 5, -8, 4, -10, 8, -3, -14, 5, 5, -2, 5, 2, 0, -15, -2, -18, -10, -7, -18, -13, -9, 1, -16, -14, -8, 8, 4, -8, -13, -2, -9, -9, -16, -17, 0, -15, -13, -13, -9, -9, -12, -1, -17, 5, -1, -7, -4, -8, -7, -13, 6, -1, 7, 3, -3, -1, -17, 1, -11, 8, -15, 7, -6, -7, -6, -3, -6, -6, 9, 7, 3, -7, 5, -7, -2, -12, 8, -12, -20, -8, -13, -4, -6, -5, -5, -4, -7, -17, -15, -5, -6, -4, 7, -7, -3, 3, -4, -10, 0, 0, 9, -8, 6, 1, 0, -2, 8, 6, 13, -7, -18, 1, 6, -10, -13, -17, 1, 4, 10, 8, -17, 12, -5, -10, 7, -3, -8, -17, 5, -4, 2, 7, -9, -9, 4, -21, 9, 0, -11, 4, -5, 2, -10, 12, -4, -2, 7, -5, 2, 10, 2, -7, -8, -13, 4, -10, -18, 9, -2, -9, -10, 8, -14, -15, -13, 0, 3, 5, -2, -2, -3, -1, 0, 6, -12, 5, -4, -13, -2, 7, -6, 4, -3, -13, -16, 5, -4, -12, -11, -19, -9, -5, -7, -18, -12, -12, -15, 11, -1, 11, -1, -12, -4, -6, 14, 12, -3, 10, 0, -14, 2, 0, -4, -3, 5, 7, -11, -9, 0, -9, -15, -3, 6, -1, -4, 3, 7, -10, -11, 14, -13, 11, -10, -17, 10, -6, -16, -12, -3, -16, 4, -4, -15, 4, 2, -13, -12, 2, -1, -11, 1, -2, -16, -16, -10, -7, 4, -13, 11, 3, -7, 2, 0, -15, -19, -6, -14, -4, 6, -15, -15, -6, 3, 14, -7, 11, -8, 0, 1, -8, 5, -1, 9, 7, 4, 7, -15, -2, -2, -6, -12, -17, -1, 11, 8, -4, 4, -6, -12, 4, -11, -12, -16, -3, 4, -6, 6, -13, -9, -12, 4, 2, -15, -3, 2, 3, 6, 2, 6, -18, -3, 5, 8, 10, -1, 0, -14, 4, 8, -14, -11, -6, -1, 9, 1, -6, -1, -4, -20, -3, -3, -13, 3, -5, -6, -4, 9, 6, 12, -14, -4, 12, 1, -11, -12, -20, -10, 0, 6, 10, 1, -8, 5, -12, -16, 3, -8, -6, 0, -12, -3, 4, 9, 2, -7, 2, -3, -10, 9, 5, -9, -4, 6, -6, 5, 2, -11, 11, -2, 0, -4, -19, -9, 7, -5, -12, 6, 
  -6, 7, -1, -13, -20, -10, 14, -1, -17, -3, 10, 19, -5, 9, -14, -15, -12, 35, -4, -2, -6, 5, -29, -27, -31, -34, -4, -16, -24, 7, -5, -16, 39, -6, -11, 10, 5, -8, -14, 5, -18, 3, -17, 26, -33, 3, 10, 7, -15, -21, -10, -16, 2, -40, 11, -5, 14, -41, 8, 0, 9, 8, -5, -17, 15, 3, -45, -5, 1, -8, 19, 20, -7, 15, 4, 0, 4, 24, 15, 13, 18, 12, -7, 18, -14, -12, -22, -2, 0, 2, 34, 17, -25, -22, 8, -5, -10, -17, 15, 13, 10, 30, -9, -2, -2, 4, -39, -13, 6, -9, -6, -19, 2, -36, -1, -12, -6, -6, -9, 9, -13, 14, 7, -5, -9, -11, -1, 29, -16, -11, -12, -3, -18, -15, 12, 4, 1, -22, -3, 12, 2, 8, 1, -49, -13, 3, -7, -14, -14, 9, -14, 15, -1, 7, 15, 2, -31, -17, -6, -18, 30, -21, -6, -8, -5, 0, -5, 4, -1, -18, -10, 5, 13, -13, -8, -9, 13, -24, -28, -31, -28, 0, 19, 7, -12, -7, -4, 25, -10, 1, -16, -26, 16, -10, 16, -12, 7, -6, -6, 18, 8, -25, -1, 14, 16, 32, -3, -16, -7, -4, 0, -6, 14, 9, -13, -9, 14, -10, -10, -9, -10, -20, 31, 4, 1, 4, -1, 7, 9, 22, 1, 17, -10, 5, -5, 0, -20, -18, -18, -8, -25, -25, 9, -14, 14, -17, -63, 1, -62, 10, 6, 5, 14, 5, -22, 7, -9, 21, 11, -5, -27, 20, -13, -2, -3, 38, 10, 1, -6, 29, -6, -30, 0, 31, -8, 12, -20, 59, -28, -13, 1, -36, 15, -1, 42, -4, 43, -11, 16, -9, -13, 6, 18, 3, -26, 16, -10, 3, 14, -4, -29, 6, 16, 19, -36, -38, -5, -56, -15, -8, 12, 5, 14, -18, -33, 21, 39, -8, 10, -19, -20, -20, 1, -19, -10, 8, -20, -3, 5, 54, 5, -2, -22, 1, -1, -3, 8, 15, 19, -7, 12, 20, 1, -5, -17, 0, 56, -1, -25, 6, 17, -32, -9, 5, 54, -5, 43, 25, 8, 16, -46, 17, -24, 46, -6, 9, -1, 21, -1, -24, -7, -2, -47, 8, -19, -11, -18, 7, 17, -17, 10, 31, -27, 26, -13, 23, 7, 35, -17, -7, -6, -9, 19, 13, 16, -12, 15, 14, -1, -14, -29, 34, 15, -26, -4, -1, 2, -12, 4, 11, 19, 10, -20, 25, 1, -3, -23, -29, -16, 3, -20, 20, 35, 10, 10, 4, -4, 12, -6, 19, 5, -35, 3, -17, -15, -19, -3, 35, -18, 28, 4, -27, -9, 15, 0, 11, -7, -44, 4, 26, 17, -23, -11, 13, 14, -6, -21, -13, 3, 15, 16, 5, -4, -2, -19, -14, 27, -4, 34, 14, -10, -6, 8, 7, -11, 18, -15, -39, 15, 20, -10, 2, 10, 41, 16, 26, 10, -5, -1, 18, -14, 14, 10, 0, -33, -17, -19, 12, 24, 15, 28, -28, 1, -5, 5, 11, 21, 11, -17, -7, -14, 9, -8, -24, -6, -21, -13, 26, -8, 11, -25, 44, -13, -31, 20, 29, -2, -29, -6, 34, -14, 11, 8, 10, -25, -13, 21, 7, 5, 10, -11, 1, 22, -40, 2, -11, -29, -11, 11, 1, -10, 0, 10, 18, -8, 20, -31, -6, 5, -19, -9, -5, 1, -25, -21, -6, -15, 0, -8, -9, -40, -10, 2, 9, 4, -7, 16, 3, 59, -8, 13, 11, 13, 12, 17, 35, -1, -10, -2, -17, -7, -14, 8, -6, -3, 17, -6, 8, -11, -28, -30, 6, 1, 34, 16, 8, 17, -12, -13, 28, 32, 3, -19, 26, 32, 3, -25, 20, 2, 19, -8, 4, -8, 17, 0, 43, -5, -8, -40, 9, -6, 16, 10, -14, 13, 2, 5, 44, 5, 20, 1, 15, 2, 6, -43, -7, -7, 11, -2, -61, 35, -6, 17, -5, 4, 29, -46, 23, -3, -38, 24, 21, -4, 13, 2, 10, -20, 7, 4, 34, 13, -10, 1, -55, -45, -3, -9, 72, 28, 16, 2, 11, 5, 24, 10, -28, 2, -16, 20, -39, -32, -39, 19, -13, -32, -48, 8, -17, 10, 37, -5, -9, -19, -27, 1, -6, 7, -33, 16, 33, 17, 11, -15, -28, -5, 24, 6, 7, -22, 15, -14, -7, -1, 11, 7, 11, 23, 0, 7, 5, -18, 4, 18, 23, 0, -10, -9, 6, -1, 43, -21, 39, -10, -6, -15, 29, -33, 11, 2, -6, -35, -10, -24, 85, -12, 43, 15, -9, -3, 12, -70, -1, 24, -1, -1, -15, -27, -10, 1, -19, 0, 12, -6, -6, 3, -15, -28, -26, 3, -25, -11, 41, -16, 5, 24, 11, -1, 1, -13, -43, 30, -56, -26, 28, -7, 4, -9, 3, 38, 1, -9, 13, -10, -1, 17, -7, -13, -19, -2, 1, -7, 13, 12, 12, 4, 28, -3, -36, 12, 53, -24, 7, -9, 6, -6, -30, -13, 6, 11, 10, 9, -22, -29, -5, 8, 17, -2, 3, -7, -3, 3, 10, -2, -8, -12, 12, -7, -3, -15, -9, 2, 21, 17, -5, 6, 12, 1, 13, -37, -5, 7, -8, 8, 23, 9, -2, -2, 1, -2, 23, -33, 9, -48, -39, -36, 8, 13, 0, 3, 32, 36, 5, 4, -11, -2, 1, 18, 1, -12, 3, -1, -7, -6, -18, -18, 17, -1, -29, 15, -12, -20, -2, -8, 6, -9, -40, -7, -15, 10, -23, 3, 17, 11, 17, 17, -12, 7, 31, -5, 24, -3, 14, -8, -12, 20, 0, -2, -2, -7, -21, -25, -17, 2, 18, -18, 1, 3, 15, -2, -4, 2, -4, 9, -10, -16, -7, 23, -44, 45, -4, -32, 15, -12, -10, 15, -1, 25, 16, -28, 29, 6, -39, -2, 6, 11, -5, 22, -13, -27, -17, -10, -26, 10, 8, -17, 15, 2, 0, 3, 5, -5, 14, 13, 7, 0, 2, -6, -7, 14, -27, -13, -11, 7, 1, -29, 35, -11, 2, 10, 13, -10, -38, -29, -4, -10, -36, -17, 4, -8, 14, 6, -29, -11, 11, 20, 11, -56, 7, 23, 5, -11, -30, -28, 11, 
  31, 2, 10, -14, -4, -2, 2, -12, -5, -15, -7, -12, 2, -3, 11, 4, 7, -25, 2, 19, 12, -8, 36, 14, 14, 31, 15, -11, -7, -11, -3, 32, 5, -22, 46, -7, 23, -2, 11, 3, 1, 42, 22, -14, 0, 6, 8, -7, 49, 2, -1, 21, -15, 27, 15, -9, 16, 41, -40, -10, 1, 1, 11, -35, 4, -1, 27, 27, 11, -3, 7, 3, -12, -16, -12, 15, 12, -20, 5, -9, 29, 22, 5, 12, 10, 17, -8, -44, 8, 7, 23, 2, 32, 0, -15, 26, 7, 4, 12, 20, 2, 23, 25, -4, 27, -20, 18, -16, 12, -57, 5, -4, 12, 36, 2, 1, -38, -2, -13, 0, -22, 6, 8, -6, -10, -29, 14, -1, 6, 7, 2, -15, -5, 21, 8, 2, 0, -3, -1, -14, 6, 18, 6, 21, 22, -13, 5, 27, 10, 15, 9, -9, 8, -5, 9, 12, 24, 21, 24, -30, -41, 55, -27, 7, -7, -3, -5, 8, 7, 11, 12, 4, -14, -3, -5, 35, 2, 29, 24, 20, -8, 5, -20, -65, 3, 37, -3, 0, 16, 8, 13, 22, -5, -18, -13, 19, 26, 21, -3, 5, 18, -18, 6, -9, 15, 8, -42, 37, -23, -6, -12, 10, 16, -1, -25, 1, -6, 2, -25, 1, 0, 2, -23, -10, -7, -9, 0, 31, -11, -51, -7, -6, -53, 2, -3, 4, 0, 18, -9, -11, 32, 2, -6, 0, 9, 8, 52, 13, 58, -16, -8, -9, -5, -17, 4, 11, 0, -18, -12, 6, 6, -19, 12, 13, -13, -33, -12, 28, 4, -15, -1, 3, 0, -39, 6, 3, -12, -37, 37, 19, 4, 40, -3, 1, -19, 0, -53, 21, -14, 24, 2, 17, -35, -16, 9, -4, -10, 3, 2, 24, 36, -2, 13, -32, -2, 14, -6, 44, -18, 6, 2, -35, 5, -2, 22, 3, -21, -7, 1, 36, 10, -2, -14, 23, -17, 13, -8, -7, -7, 4, -4, 2, 23, -46, 0, 11, 14, 5, -5, 10, 13, -6, -4, 12, 19, -2, -39, 16, 16, -21, -8, 32, 8, 5, -45, -6, -15, 7, 18, 6, 35, -17, 7, -64, 15, 8, 14, -11, 26, 4, -12, -10, 45, -10, 1, 13, 33, -17, 6, 11, -15, 8, 6, -25, 1, -3, -15, -14, -3, 0, 6, -4, 11, 1, -24, 14, 7, 12, -6, 21, 40, -30, 0, 15, -2, 10, -2, -45, 7, -3, 6, -16, 20, -14, 16, 11, 18, -3, 10, -13, 9, -39, -22, -6, 0, -5, -2, -12, 24, -26, 18, 10, -8, 18, 23, 29, 9, -31, 32, 7, -8, 1, -8, -26, -12, -2, 17, 12, 4, -2, 19, 9, -3, -53, 4, -1, 3, -6, 20, 22, -7, -10, 26, 2, -26, 12, 8, -9, -15, 2, -10, -6, -1, -6, 6, -6, 43, 9, -50, -17, -14, 4, -23, -47, 8, 5, -19, 5, -4, -26, 9, -1, -5, 4, 46, 23, 14, -9, -14, 10, -10, 7, 72, 5, 2, 26, 4, 7, -2, 31, -5, -5, -16, 4, -6, -14, 9, -17, -8, -5, -20, -20, 20, 11, 9, 20, 3, -6, -14, -17, 9, 9, 1, -28, -29, 6, -7, -2, 10, -2, -9, 21, 11, 13, 1, 8, -11, 7, -9, -4, 4, 13, -3, -23, -5, -6, 3, -11, 2, 0, 6, 1, -4, 14, 28, -22, -7, 0, 11, 17, 56, 3, -9, -7, 0, 11, 7, 10, -43, 15, 24, 12, -9, 3, 11, -11, 19, 4, -2, 26, 2, 8, 0, -9, -11, -11, -45, 7, 5, 33, 7, 14, 0, 22, -15, -21, -5, -7, -7, 29, -38, 10, -4, -33, -23, -1, 21, 8, 11, -9, 22, -31, -10, -3, -3, -38, 13, 22, 12, -3, -18, 0, 12, -12, -8, -23, 10, -9, 14, -34, 8, 33, -23, 31, -2, -11, 6, -1, 1, 73, 10, 12, -4, 17, -7, -42, 37, -15, 6, 8, -23, 11, 25, -5, 11, 7, -5, -8, -14, -17, -15, 29, 17, -6, 13, -22, 11, -39, -16, 20, 11, -1, -2, 2, 21, 14, 18, 41, -9, -4, 14, 18, -29, 13, 19, 96, 0, 1, 9, 15, -2, -10, -44, -6, 1, 22, 4, 17, -19, 10, -11, -9, 9, 0, 7, -26, -11, 1, 12, 14, 32, 5, 11, -8, -20, -18, -31, 8, -3, -12, 18, 14, 6, -10, -22, -2, -31, 5, 14, 5, -20, 2, -4, -6, 19, 9, -26, -12, -23, 11, 9, 21, 27, 42, 21, -13, -5, 2, 5, 10, -8, 31, -19, 6, 4, -19, 1, 9, 2, 20, 18, 3, 18, 7, 3, -12, 37, 2, 3, 3, 6, -4, -4, -10, 4, -12, -15, 11, 23, 56, 1, 12, 8, -33, 9, -9, 24, -1, -7, -28, 9, 7, 5, -8, 21, -12, -24, 7, 22, -5, 17, 11, -29, 9, 2, -2, 0, 38, -8, -33, 1, -3, 13, -8, -1, 21, 5, -7, 3, -22, -17, -21, -18, 4, 8, -2, 4, 5, 7, 29, 12, -34, 13, 14, -2, -6, -14, 2, -13, 13, -10, -22, -12, -3, -64, -30, 10, -1, 30, -13, -1, 10, 13, -4, 6, -28, 18, -8, 4, 16, -1, 6, 58, 23, 17, -14, 16, 10, 11, 21, -30, 24, -4, 23, 2, 13, -21, 1, 12, 2, -9, -6, 33, -11, 0, 1, -11, -27, 7, -36, 15, -6, 3, 4, 1, 18, 6, 6, -4, 10, 15, 8, -35, -10, -2, 22, 11, -14, 9, -6, -3, -2, 13, 9, -15, -1, 7, -4, -28, -5, 15, 9, -10, -29, 28, -3, 23, 21, 7, 11, 2, -13, -4, -39, 11, -1, -36, 19, -11, -22, -11, 21, -11, -10, -1, -19, -1, -15, -18, -21, 1, 0, 5, -3, 8, 3, 23, 36, 2, 15, 1, 12, -35, 4, 6, -6, 2, 31, -18, 1, 5, 14, -5, -7, -13, 6, 22, -5, 8, 31, 2, 4, 4, 14, 11, 7, -5, 6, -6, -2, -24, 29, 6, 17, -40, 15, -52, -10, 16, -5, -28, 3, 5, -31, -51, 1, 13, 9, -17, 11, 15, -27, -14, 13, 
  -13, 10, 16, -29, -5, -34, -3, -8, -25, -29, 8, -10, 19, -27, 2, -7, -1, 2, -11, -6, -6, -22, -20, -13, -17, -25, 0, 7, 20, 39, -12, -1, 9, -28, -8, 13, -8, -3, -19, -7, 0, -44, -1, -20, -31, -20, 11, 62, 4, -1, -8, -5, -3, -5, 6, -11, 3, -61, 48, 13, 10, 7, 5, -6, -9, -7, -18, -5, -24, -6, -1, -13, -4, -11, -16, -4, -12, 2, 0, -10, -21, -16, -8, -18, -46, -8, -17, 15, 15, 11, 4, 9, -18, 25, -1, -46, -9, -3, 2, 6, 19, -27, -43, 19, 37, -25, -14, -10, -13, -21, 3, 18, -25, -18, -14, -22, 2, 12, -22, 3, 24, -13, -8, -4, 9, 7, -4, 17, -5, -15, -10, 23, -17, -11, 16, -18, -6, 20, -27, -7, -8, -6, -10, -49, 7, -22, -32, -36, 6, 2, -2, 15, -7, 3, 2, -9, -34, 0, 5, -7, -6, -50, 21, -18, 14, -8, -25, -6, -12, -19, -2, 38, 5, -30, 17, -38, -8, -45, -6, 9, -9, 2, -19, 14, -30, -15, 12, -20, 20, -16, -53, -78, 3, -6, -14, -16, 5, -7, 31, -24, -9, -33, -8, -24, 2, -4, -15, -1, -9, 2, 15, -4, -7, -7, -3, 7, -16, -7, 14, 6, 23, -10, -1, -16, 6, -12, -19, -11, 2, 10, -3, 53, 6, 7, 32, -6, 4, 0, -61, -17, -28, 3, -5, 9, 21, -22, -5, 18, -42, -2, -26, -10, 5, -22, -22, 3, 0, 21, 14, -56, -23, 0, -37, -5, -11, -15, -21, 1, 17, -7, 4, -16, -10, 4, -3, 2, 11, 16, 8, -8, -24, 14, 6, -9, 64, -1, -33, -20, 1, -22, 4, 10, 9, -5, -24, -9, -13, -48, 26, -16, -46, 11, -5, -21, -5, -12, -11, -43, 2, -11, -13, -24, -20, -16, -50, 0, 24, 10, -6, -6, -7, -15, -29, -23, -9, 1, -5, 1, -7, -13, -2, -8, 12, 12, 6, 1, -37, 11, -18, -26, -44, -16, -21, 13, -22, -14, 14, 14, -8, 12, -3, 7, -21, -22, 38, 3, 26, -28, 20, 2, -30, -18, -9, -27, -3, -23, 5, -5, -17, 12, 7, -47, -34, -8, -11, -9, -12, -10, -9, -6, 2, -21, 3, 19, 26, -28, 3, -34, 16, -29, 12, -10, 1, -26, -60, -18, -6, -2, 7, 5, -47, -20, -7, -8, 17, -18, -18, 17, -18, 10, -6, -2, -37, -23, 0, -22, -50, 4, -53, 20, -36, 3, -58, -2, 5, 22, 17, 26, 11, 43, -6, 3, 30, -1, -11, -18, 1, 26, -18, -24, -18, -29, -5, 6, 14, -4, -54, -29, 9, -4, -5, -13, 18, -12, 9, -9, -10, -20, 7, -47, -30, 27, -15, -14, 4, -23, -41, -18, -15, 3, -25, -9, -7, 5, -8, -1, -1, -16, 27, 0, 0, 1, -32, 34, -20, -22, -9, -20, -10, 21, -27, -12, -34, -30, -38, 8, -5, -20, -7, -19, 53, -13, -55, 22, 10, -37, -54, -2, 15, -24, -6, 19, -20, 1, -10, -21, -3, -10, -59, 5, 0, 7, -12, -24, 2, -28, -13, -22, -17, -9, 16, 13, -13, -29, -8, -47, 10, 18, 2, -1, 24, -19, -38, 25, 11, -26, 1, 5, 5, -13, 15, 26, -16, -26, -11, 27, -47, 7, -22, -14, 23, -18, -1, -6, -23, 39, 12, -26, 2, 27, -29, 0, 18, -8, 1, -20, -6, -6, 23, 16, -17, -11, -2, -18, 10, -14, -9, 1, -15, -44, 16, -10, -15, 10, -11, -6, -15, -22, -26, -9, 23, -8, 0, 2, -17, 4, -21, 7, -2, -5, 7, -4, 10, -22, -24, -6, 19, -21, -7, -10, -1, 15, 1, 14, 31, 53, -9, -14, -27, -17, 8, -12, 23, -9, -3, -9, 4, 0, 28, 25, 2, -27, 2, -53, -6, -39, -12, 11, 5, -13, -36, 0, 18, -3, 11, 8, 11, -26, -12, -5, 31, 20, 1, 21, 4, -5, 3, 25, 52, -35, -10, -13, -21, 6, -24, -4, -37, 6, 5, 17, 4, 15, 0, 22, 0, 6, 5, 1, -19, -41, -13, 2, 23, 1, -30, -28, -19, 15, -9, -34, 4, -9, -51, 12, -1, -46, 3, -7, 1, 4, 35, -2, 38, 3, -4, -92, -51, -1, -20, -21, -29, 7, -60, -19, 2, 9, -16, 8, -13, -5, -41, 17, 4, 29, 3, -21, -7, 0, -13, -3, 8, -14, -8, -29, -12, 14, 17, -3, -44, -3, -38, -17, 17, 46, 4, 17, 18, 3, 24, 10, 0, -9, 30, -8, 14, -18, 4, 11, 1, -27, -6, 14, -28, 20, -34, -4, -23, 24, -9, 4, -2, -9, -5, -32, 0, 13, 11, 5, -12, 28, 18, -49, -4, 1, -16, 3, 54, 1, 4, -1, 12, 2, -1, -14, 6, -2, 81, 15, -8, -7, -11, 4, 5, -12, 3, -28, -4, -11, -15, 13, 23, 4, -11, 1, -1, -74, 9, -1, -18, 1, 7, -1, -3, -3, 27, 8, 27, -11, -14, 3, 2, 1, 12, 8, -34, -11, 14, -18, 7, -6, 3, -16, 4, -5, -23, 29, 43, 10, -55, 4, 7, 24, 0, -18, -2, 20, 10, 12, -24, 18, -2, 2, -13, 16, -21, -23, 29, 10, -14, -12, 33, -2, -7, -31, 4, -6, 2, 2, -11, -15, 6, -1, -31, -42, 7, 26, 5, 13, -17, -15, 16, -30, 36, 29, -1, 5, -15, 11, 11, -10, 7, 14, 4, -6, -3, 16, 5, 15, -37, 35, -3, -3, 32, 5, 40, -14, 12, -3, -10, 38, -14, 4, -44, 26, 27, 6, 35, 6, 5, -3, -4, 14, -5, 69, -18, -36, 25, -36, 43, -33, -21, -57, 12, 9, -14, -18, 26, -6, -20, 18, 17, -4, -19, 55, -4, -12, 3, 2, -14, 47, -12, -9, -32, 22, 14, 58, 2, 38, -26, -2, 10, 0, -22, -3, -2, -13, -27, -7, 38, 38, -7, 5, -7, 2, -20, 19, 3, 5, -4, -13, -24, -21, 13, 8, -9, -32, 4, -3, -16, 18, -5, -3, -32, 18, 12, 18, -23, 1, -13, 3, 14, -9, 7, 13, 
  2, 5, -11, -9, -8, 7, -9, -12, -7, -3, -10, -6, 2, -3, -1, 8, -4, 7, 1, -3, -4, 0, -18, -18, 3, -18, -9, 4, -5, -2, -1, 2, 10, -9, -13, -7, 4, -14, -5, -18, -7, 8, 4, -9, -15, 7, 2, 0, -6, -7, 9, 0, 7, -3, 8, -9, 4, -11, -5, -13, 3, -18, 6, 3, -16, -19, -14, -16, 1, 3, -14, 2, 4, 11, -11, -8, -3, -15, 6, 9, -9, -2, -7, -10, -3, 14, 6, 9, -4, -10, -14, -12, -11, -7, -9, -15, -10, -8, 1, -6, -10, -7, -9, 3, 1, 1, -4, -4, 5, 1, -9, -10, 0, 11, -17, 2, -14, 3, 5, -2, 2, -8, -13, 8, 6, -18, -2, -1, 6, 0, -8, -10, -7, 1, -5, 13, -7, 4, 6, -17, -8, -8, -10, 0, -2, 7, -15, -13, -7, -8, 2, -15, -15, -2, -5, -4, -10, 6, 12, -11, -11, -13, -16, 4, -16, -13, 6, 2, -3, 8, -11, -1, -16, 7, 2, 6, -6, -6, 0, -18, 12, 2, 6, -3, -8, -15, -19, -19, -3, -12, -8, -4, -4, -4, -19, -16, 3, -17, -10, 0, 5, -18, -14, -19, -13, 5, 2, -12, -3, 5, -5, 3, -17, -11, 0, 7, -2, -1, -10, -14, 3, -7, -16, 12, -11, 7, 5, -4, -4, 10, -7, -6, -11, 10, -3, -17, -15, -5, -9, 5, 0, 12, -19, -14, -5, 14, 0, -5, 0, -14, 8, 8, 7, 2, -14, -5, 5, 2, -17, 7, -4, -10, -6, -14, -12, -12, -10, 11, -3, -16, -14, -12, 4, -19, 6, -12, -9, 10, 1, 1, -1, 7, 7, -4, -13, 1, 8, 11, 8, -6, -8, -17, -9, -5, -4, -6, 1, -8, -7, 4, -11, -7, -3, 9, -2, -6, -16, -4, -5, -9, -5, -16, -13, 0, 2, 1, -1, 1, -4, 2, -9, -18, -14, 4, -5, -11, 5, -14, 11, 3, -3, 5, 0, 6, 7, -13, -8, 6, -19, 3, -10, -13, 0, -1, 4, -10, 2, -19, 11, 6, 2, -18, -10, 4, -13, 5, 10, 1, 9, -11, 6, 7, -10, 13, -14, 2, -5, -10, -17, -11, -11, -14, -11, 1, -8, -3, 1, 3, -9, 4, 6, 1, -8, 3, -6, -10, -1, 4, 4, -16, 14, 6, -10, -15, -6, -4, 10, -3, -16, 2, 2, -11, 4, 7, -15, -12, -14, 7, 15, -16, 11, -10, 16, -15, 15, -13, -2, -11, -4, -16, -10, -14, -11, 3, -7, 1, -1, -9, -10, -17, 11, -14, -1, 10, 3, 2, -8, 2, -9, 9, 0, 6, 6, -13, 2, -17, 2, -9, -4, -11, -3, -6, -17, -1, 7, -7, -2, -18, 5, -10, -19, -16, 5, 8, -2, 2, 6, -1, -7, -4, 1, 6, -16, -15, -8, 8, -8, 7, -9, 0, -19, 7, -6, 14, 7, 0, 9, -13, -9, 3, 3, 19, 9, 0, 12, 3, 4, 3, 3, -2, -8, -17, -4, 12, -10, -3, -1, -1, -6, -9, -2, -2, -6, -5, 6, -9, -16, -7, -15, -6, -6, -12, -3, 2, -5, 3, -12, 3, 7, -10, -15, -1, -7, 18, -19, 13, 2, 6, -7, -19, 2, -11, -5, 6, 11, 6, -11, -13, -13, 6, -19, -17, 6, -16, -11, -11, -12, 1, -16, 7, -8, 15, -7, -10, -12, -11, 2, -1, -1, -11, -6, 6, -11, 5, -11, -4, 7, 1, -16, -3, 4, -9, -1, -10, -14, -13, 5, -3, 8, 5, 8, 0, -17, 1, 17, 7, -9, 0, -8, -3, -1, 17, 11, -7, -10, -1, -14, -1, -7, -7, 8, 3, -14, -8, 2, 1, 13, 7, -2, -14, 11, 4, -12, -13, 7, -2, -16, -17, -13, 1, 8, -12, -8, 3, -7, -8, -7, -11, 4, -5, 2, -11, 5, 11, 1, -13, 14, -3, -1, 0, 8, -10, 1, -9, -8, -10, 2, -16, -8, 2, 0, -9, -15, -11, 0, 4, -6, -4, -16, -9, 2, -17, -5, -18, -15, -8, 5, -8, 3, -8, -1, 5, -16, -13, 7, -9, 2, -8, 6, -6, 3, -18, 4, 2, -3, -12, -6, -7, 0, -8, -4, -14, -3, -8, -5, -2, 8, 0, -14, -11, -13, -6, -8, 2, 7, -9, -8, -5, 7, 12, 3, 0, 2, 3, -18, 0, -10, 13, 7, -17, 1, 12, -7, 13, 1, -12, 9, -12, -2, -17, -13, 19, -12, -4, -13, -10, 4, -17, -11, 0, 5, 14, 11, -12, -11, 14, 4, -16, -6, -5, -5, -12, -19, 12, 7, 6, -12, -16, -9, 6, 6, 6, 3, -4, -4, 2, 12, 13, -6, 11, 2, -17, 7, 8, 1, -18, -15, 10, -17, -13, -15, -4, -1, 13, -8, 14, 8, 2, -3, -2, -6, -7, -15, -18, 3, 5, 7, -14, -10, -6, 1, -1, -15, -14, -3, 10, 3, -18, -2, 11, 4, -1, -17, -12, -15, 8, 3, 1, 8, -9, -9, -17, 7, -11, 8, 0, -1, -18, 5, 4, -5, -11, -12, -3, -13, 1, -12, -19, -1, -18, -16, 7, 9, -10, -13, -6, 6, -2, -6, -3, -3, -18, -19, -2, -3, -10, -7, 3, 9, 13, -4, -17, 0, -2, -14, -10, -1, -11, 13, 5, 9, 0, 6, 8, -8, 4, -4, -13, -7, 0, 5, 2, -2, -14, -8, 4, 9, 2, -5, 1, -7, -4, -12, 8, -8, -5, -1, 5, -1, -12, 14, -3, 7, -2, -14, -16, -18, 8, 7, -19, 2, 0, 1, 16, -15, -7, -15, -2, -10, 1, -14, 0, 6, -2, -5, -12, 0, 1, -10, -5, -8, 12, -2, -11, 3, 12, -12, 1, -3, 6, 9, 8, -16, 3, 6, -19, -1, -1, -13, 2, -5, 5, 1, -9, 10, 4, -2, -6, -6, -2, -6, -2, 3, -11, -7, -5, -5, -1, 0, 7, -8, 3, -14, 1, 7, -14, -8, 8, -8, 13, 2, 2, 4, -6, -4, -11, -6, 16, 1, -11, -9, 2, -3, 2, -1, 5, 11, -4, -10, -11, 2, 4, 2, 5, -18, 8, 10, 8, -10, -10, -3, 0, -13, -7, 
  16, 4, -4, 7, -25, -48, 19, 27, -6, 2, 11, 35, -15, 31, 0, -23, 10, -36, 16, -11, -12, -25, -2, -22, -7, 7, 16, 32, -18, 15, -15, -46, -19, -11, -9, 0, -15, -3, -1, 13, -12, -7, 18, -24, -1, 7, -17, 38, 12, 28, -25, -4, -6, 14, 0, -22, -11, -28, -34, -4, 15, 5, -15, -8, -4, -10, -14, -9, 11, 17, 23, -72, -8, -32, -14, -14, -8, -13, -2, -7, -36, -13, 35, 3, 16, 1, 2, -50, -28, 19, 37, -9, 16, -19, 3, -5, -7, -21, 15, 8, 39, 1, 1, 19, 49, 10, -17, 10, -11, -48, -5, 4, -6, -2, -7, 5, 8, 16, 4, 0, -16, 19, -19, 3, 9, 62, 7, 17, -11, 1, -10, 6, -5, -3, -14, -4, -19, 16, -10, 9, 5, -11, 5, 31, -33, 3, 2, -46, -27, -21, -7, 19, -1, -18, -11, -7, -9, 1, 2, -9, -34, -25, -20, -12, 16, -2, -14, -5, -19, 7, 19, -12, 12, -11, -6, -1, -8, 0, 38, -8, -43, 27, -1, 23, -44, -2, 8, 9, -12, -8, -16, -13, -1, 5, 5, -34, 5, 38, 11, 24, -28, -7, 27, -3, -17, 20, -10, -12, -45, 8, 8, -12, -14, -10, -15, 2, 12, 7, -23, 7, -22, -1, 3, -8, 26, -18, 24, 3, 16, -17, -16, 4, -9, 21, -20, 10, -16, -10, -16, -28, -17, 5, 11, 3, -10, -1, -58, 17, 1, 9, -49, 1, -15, -2, -37, -2, 33, 41, -2, 22, -3, 7, -8, 33, 16, -32, 12, -4, -12, -20, 1, -11, 14, -40, 19, 1, 12, -6, 7, -3, 24, 3, -12, -10, -11, -14, -42, -29, -11, -37, 49, -12, 28, -6, 4, -2, 5, 36, 47, 4, 7, -9, 0, 9, 25, 9, -17, -26, 5, 13, -12, -4, -2, -1, 28, 0, 34, -9, 3, 4, -11, 14, -4, -1, -24, 8, 1, -37, 0, -14, 10, 4, 16, 20, 17, -18, -15, -13, -21, 26, 22, 2, 0, -27, -35, 3, 44, -11, 1, -3, 1, -6, 14, -27, 20, 7, 37, 15, 22, 12, 23, 32, -45, -16, -5, -36, -3, -7, -4, 12, -9, 6, 30, 10, -20, -15, -17, -5, -10, -11, 14, -2, 3, -38, 24, -19, 10, 2, 37, 4, 12, 4, -10, 8, -32, 2, -9, -10, 3, 26, -11, -41, -14, -33, 8, -4, -41, 17, 5, 8, -5, 4, 8, 2, 5, -11, -18, -59, -8, 42, -12, -5, -18, 17, 18, 13, 16, -9, 42, 15, 6, -48, 16, 42, -13, -21, -55, 48, 1, -14, -13, -7, -1, -2, 15, 23, -15, -2, -1, 19, 0, -24, 15, -35, -5, 31, -48, -14, -3, 4, -18, 12, 24, 6, -40, -8, -43, -12, 1, 0, -37, 0, -17, -11, 58, 8, 6, 40, 14, 7, 13, 3, 11, -11, -10, -32, 21, -36, 15, 57, -11, -13, -24, 36, 9, -21, -33, -35, 4, 14, 8, -38, -8, 1, 32, 18, -41, 2, 16, 13, -9, -10, 38, 6, -9, -10, -15, 8, 11, -12, 15, -43, -3, 3, -1, -23, -6, -17, -18, -33, -3, 4, 1, -16, 0, -3, 7, 14, 5, 4, -2, -24, -60, -52, 19, -14, 12, -1, 15, -13, -63, 11, 5, -40, 14, 3, 2, -6, 0, -31, 7, -12, 3, -14, -16, 37, -3, 23, 11, -48, -9, -18, 37, 29, 21, 37, -15, 0, 44, -9, 40, -14, 42, -21, -4, -17, 10, -9, 10, -10, -6, 4, -18, 18, -3, 7, 26, -13, 11, -11, -18, -15, 35, -17, 20, -6, 4, 22, 20, -41, 4, -2, -13, -9, -14, -5, 59, -10, -22, -15, -1, 7, -17, 14, -15, 37, -33, -21, -11, -1, 0, 13, -19, -12, -9, -11, -6, -10, -10, 5, 34, -27, 38, -12, -11, -3, -8, -19, 4, 7, 19, 7, -7, 0, -1, 28, 3, -35, 29, -23, 41, 34, -59, 35, -15, 4, -4, 13, 12, 18, 19, -3, 5, -2, 14, -1, -19, -29, 16, 11, 21, 18, 33, 1, 33, 48, 6, 6, 27, 11, -35, -37, -17, 11, -2, -21, -7, -50, -10, -28, -9, 5, 5, -12, 5, 37, 14, -36, 21, -18, 29, 21, -11, -32, 27, -10, -9, 1, 31, 23, -26, -7, -18, 14, 7, -7, -25, 10, -12, -16, 34, -18, -1, -8, 18, 2, 5, 15, 12, -19, 5, -29, -4, -41, 12, 25, 4, -1, -14, 19, 13, 1, -32, 39, 20, 6, 9, -14, -46, 8, 29, 68, -3, 21, 5, 36, -33, 18, 0, -23, 11, -11, 14, -5, 5, -32, -19, -6, -15, -8, 18, -52, -3, -13, 4, -7, -14, 12, -19, 9, -10, -30, 7, 1, 30, -12, 20, 1, -24, 1, -12, -52, 6, -1, 20, 30, 41, 14, -8, -12, 9, 16, -9, -6, 15, -34, 1, 2, -1, 28, -43, 23, 8, -34, -1, -29, -29, -13, 22, 8, 6, -35, -9, 7, 49, 5, 14, -16, -4, -1, 14, 4, -20, 0, -10, 33, -6, -14, 1, -15, -16, 12, -43, 13, -17, -7, 39, 12, 34, 5, 18, 10, -2, -2, 11, -22, 19, -8, -25, -16, -18, -9, 58, -11, -24, -48, 18, 5, -13, 48, -5, 16, 8, -26, -12, 23, 10, 24, 13, 6, -33, 12, -14, -27, -27, 1, 18, -56, 6, -31, -16, -11, 0, 18, 19, -10, -11, 4, 19, -2, -7, 4, 4, -10, 6, -51, 22, 32, -3, 65, -1, 10, 33, -11, 27, -16, 2, -6, -49, -48, -5, 14, -26, -13, 1, 21, -9, 5, 10, 0, 26, -25, 7, -39, -4, 24, 30, -50, -12, -11, 3, -2, -30, -19, 10, -9, 11, -10, -7, -5, 0, -47, 3, 14, 3, 6, 19, 8, 8, -3, 25, -33, -19, -15, -8, 39, 6, 25, -42, -13, 29, -4, -12, -9, 22, -1, 2, -7, 1, 3, 2, 1, -5, -4, -21, -17, 1, 14, 4, -9, -37, -2, -14, -11, -13, -4, -19, 16, 3, -11, -5, -15, 11, 4, -62, 9, -13, 18, 21, 10, 6, -6, -35, -1, 
